{"ent_embeddings.weight": [[0.78769505, -1.6233114, 0.9217446, -0.023693668, 0.36106881, 0.82772607, -0.90280974, -0.74909335, -0.037577167, 0.36972725, 0.44777128, 0.1572207, 0.0733777, 0.023192002, 0.2721545, 0.14828654], [0.3794699, -1.2706699, 1.0618607, 0.01812179, 0.12450145, 0.77317435, -0.9061626, -0.1899128, -0.2019144, 0.37302774, 0.014718163, -0.10273592, 0.46971592, -0.00421584, 0.34685817, -0.31472135], [0.7276163, -0.9650309, 0.45791668, 0.24029723, -0.35136008, 1.007677, -0.95358145, -0.70778424, -0.4390456, 0.46669438, 0.5217958, -0.41120836, -0.27200952, 0.38065794, 0.1992674, -0.02202706], [1.2735373, 0.4063698, -0.27251124, 0.3058638, -1.4182413, 0.3472782, 0.4466405, -0.12886897, 0.34004775, -0.40938148, 0.06055253, -0.6299381, -0.50734735, 1.1424551, 0.2684316, -0.14874522], [-0.08684858, -0.70160097, 0.41251954, 0.3959264, -1.1772716, -0.54415786, -0.027195044, -0.8227254, 0.030024301, 0.24264891, 1.2367156, -0.19409895, -0.86966157, -1.0134925, 0.6856769, -0.3758816], [-0.30759177, -0.78639835, 0.15743218, -0.18032146, -1.2825766, -0.6329259, 0.20803094, -0.95404446, -0.08513788, -0.05311998, 0.5767804, -0.19879813, -0.9861809, -0.89641106, 0.3783283, 0.06788598], [-0.15629815, -0.6675602, 0.18868414, -0.0015596916, -1.1957012, -0.89127195, 0.3375776, -0.86679256, -0.5460187, 0.06585388, 0.35310864, -0.46520373, -0.77928567, -0.42995676, 1.0412779, -0.273989], [-0.4651374, -0.581545, 0.015360035, -0.1401623, -0.8751811, -0.7003838, 0.23487733, -1.0517061, 0.34289074, -0.4718517, 0.60955286, 0.0064461194, -0.62111944, -1.0297059, 0.80815756, -0.6121025], [-0.31369787, -0.35911074, 0.26637188, 0.48500237, -0.8988117, -1.1968144, 0.18612039, -1.1312592, -0.46042833, 0.33504695, 0.6570176, 0.14800869, -0.53823376, -0.66209173, 0.9783688, -0.35195684], [0.06830577, -0.8393515, 0.588995, -0.19448367, -1.1934742, -1.260547, 0.024473533, -0.6868543, -0.5783671, -0.41975823, 0.5439129, -0.0070195207, 0.3803237, -0.99657613, 0.6844322, -0.46152452], [0.071213335, -0.6096961, 0.8406845, 0.07081715, -0.88558036, -1.1287589, 0.20225324, -0.9519774, -0.29246363, -0.5519359, 0.27732933, 0.028908772, 0.74594, -0.7256452, 0.90739167, -0.05397336], [0.09067948, -0.39541718, 0.9403467, -0.05645326, -1.0427494, -1.0106126, 0.19338532, -0.9159801, 0.06042142, -0.648646, 0.46846446, -0.12903771, 1.323512, -0.74298686, 0.72449994, -0.38285947], [-0.36833602, -0.8690178, -0.07691734, -0.04667652, -1.0032103, -0.9755358, 0.45862004, -1.1169881, 0.17910652, -0.029530175, 0.18411136, -0.39242145, 0.3860031, -0.50834256, 0.8041348, -0.10869595], [-0.31979153, -0.89461815, 1.2159449, 0.3926379, -1.113521, -0.90285474, 0.2082444, -0.51757175, -0.34522647, -0.1350894, 0.14548439, -0.35467482, 0.19071265, -0.87911946, 0.54762095, 0.57436305], [0.9900491, -0.59396756, 0.14627028, 0.4687705, -0.9446275, 0.15715647, 0.4605318, -0.18278125, 0.519094, -0.082131565, -0.0011188516, -0.8888679, -0.020375753, 1.515732, 0.6221322, 0.20217967], [-0.05433148, -0.8531017, 1.0331743, 0.4884053, -0.78204304, -1.1565192, 0.3700698, -0.48627555, -0.32008567, -0.23689912, 0.18272991, -0.23955248, 0.3920325, -0.9588, 0.3541315, -0.35074994], [-0.7008339, -0.8932591, 1.0158237, 0.12936284, -0.48810446, -1.0298698, 0.40544432, -0.52544606, -0.5661798, -0.06192465, 0.3747743, -0.2832719, 0.16912083, -0.86015844, 0.30923408, -0.09439746], [-0.5698175, -1.0295311, 1.0266036, 0.3729201, -0.9249433, -0.98814005, 0.38311893, -0.35469097, 0.0857816, 0.0121102845, 0.85832584, -0.7218642, -0.043118056, -0.13807903, 0.022692176, 0.4035337], [-0.30452305, -0.93843406, 1.0712949, 0.22651087, -1.0864251, -1.4953066, 0.05839255, -0.23146567, 0.28907296, -0.10704723, 0.74479836, -1.0111924, -0.14083372, -0.25599313, 0.2343889, -0.2131009], [-0.29593366, -0.8146176, 0.75947225, 0.2932475, -0.75690603, -1.1857929, 0.09494391, -0.33378437, 0.074593395, 0.060786035, 0.8588514, -0.80447626, 0.21563295, -0.6316408, 0.5531919, 0.30151093], [0.268503, -1.0118438, 0.8294046, 0.06749513, -1.0025703, -0.9581127, 0.25257093, -0.16897708, 0.16772805, 0.21666893, 1.2040758, -0.7940134, 0.040448952, -0.5479385, 0.582308, 0.5349344], [-0.617957, -1.0485787, 0.88075423, 0.057041816, -0.38956535, -1.1641572, -0.13985115, -0.24374278, 0.06285695, 0.38876334, 0.49087346, -0.44204223, -0.52656955, -0.9564395, 0.33703503, 0.20475315], [-0.5663597, -0.6179086, 1.1916018, 0.08393146, -0.5877863, -0.6956956, 0.5065965, -0.55410707, -0.65569127, 0.5365911, 0.31605822, 0.076492965, -0.60543376, -0.86513186, 0.6282624, -0.15405868], [-0.5251129, -0.7242527, 0.4490632, 0.29056174, -0.7182815, -1.6128097, 0.30135733, -0.7615131, -0.61014175, 0.61030746, 0.00041094807, -0.24803759, -0.659983, -0.42869958, 0.2846463, 0.047459066], [-0.5244015, -1.1015229, 0.8809266, 0.49371862, -0.10477705, -1.2759421, -0.11699428, -0.35192662, 0.17898934, 0.60483867, 0.08307671, -0.5903577, -0.5888559, -0.76252055, 0.3687542, 0.18208358], [1.0038037, -0.30278167, 0.08413592, 0.3891524, -0.7523599, 0.4664941, 0.67257595, 0.077506, 0.5725649, -0.06399972, -0.19216238, -0.98771006, -0.008820083, 1.5124344, 0.53873885, 0.030541029], [-0.4801588, -1.0428269, 0.55505204, 0.29325756, -0.40583402, -1.3017982, 0.09629151, -0.29959235, -0.12067807, 0.33096343, 0.12138802, -0.8178898, -1.0912448, -0.28922534, 0.5042393, -0.37159595], [-0.1248586, -1.0044899, 0.6856343, 0.63009083, -0.39879006, -1.6341664, -0.052293167, -0.18413033, -0.43520123, -0.07521447, -0.07372532, -0.23689066, -1.246289, -0.013792641, 0.29331163, -0.44739985], [-0.42714858, -0.81152755, 0.6594623, 0.4621004, -0.33487308, -1.6497779, 0.0011969764, -0.4879215, -0.32839158, 0.18592866, -0.17342564, -0.3257746, -0.5422084, 0.19239132, 0.6145101, -0.6150822], [-0.1990968, -0.6659413, 0.90139747, 0.62590486, -0.810641, -1.4176232, 0.429892, -0.53516203, -0.24943046, -0.2327117, -0.18182485, -0.29415652, -0.97153956, 0.13550986, 0.37727836, -0.011310305], [-0.6335252, -0.47762212, 0.6547662, 0.6963377, 0.19563799, -1.3605626, -0.43939993, -0.16017827, 0.5841351, 0.2572769, -0.3157764, -0.14457887, -1.0391445, 0.37272897, 0.3556657, -0.54904234], [-0.8077806, -0.24442022, 0.59088963, 0.48157597, -0.07047508, -1.6278657, -0.11436042, -0.7795034, 0.15090922, 0.31586826, -0.6411865, -0.39993808, -0.823908, 0.09440234, 0.24939702, -0.31389105], [-0.71060014, -0.5217189, 0.5935428, 0.475353, 0.06885082, -2.0623581, -0.26882336, -0.6906665, -0.15082902, 0.13059604, -0.10302005, -0.36223498, -0.53456694, 0.48693094, 0.48286027, -0.12778363], [-0.58551514, 0.26336122, 0.697392, 0.6930419, 0.23110835, -1.9066935, 0.39311373, -0.9196841, 0.27409363, 0.25016814, 0.01913397, -0.58893937, -0.10115284, -0.37864116, 0.18626255, -0.14002503], [-0.77299803, 0.34550604, 0.26091874, 0.24049063, 0.58797413, -2.045024, -0.1868354, -0.62730753, -0.100212574, 0.09494411, 0.27761552, -0.9892829, -0.3136295, 0.118802585, -0.028651975, -0.22243838], [-0.7568298, 0.32383102, 0.95127094, 0.7929407, 0.6311754, -2.1013553, 0.43949255, -0.42452678, -0.10623352, 0.12407275, -0.21188596, -0.31509346, -0.5537744, -0.6582054, -0.21248224, 0.024669314], [0.36316168, -0.15624475, 0.045196947, 0.894973, -1.1187774, 0.04275185, -0.25151163, 0.1491317, 0.74088556, 0.07375535, -0.15934089, -1.4128773, 0.29687086, 1.819757, 0.13713758, 0.25475338], [-0.41726062, 0.2758477, 0.085082725, 0.2680911, -0.24766922, -1.9898949, 0.41372687, -0.53161335, 0.0475576, -0.000872137, 0.8133818, -1.0253341, 0.3583336, 0.27015978, -0.06326611, -0.6542061], [-0.28740677, 0.38377625, 0.46387193, 0.87162906, -0.22685559, -1.4960426, 0.24513184, -0.2969031, 0.23863497, 0.16104768, 1.100717, -0.5740062, 0.007886631, -0.09973264, 0.30251423, -0.24538782], [-0.029729579, 0.4643003, 1.1290418, 0.2759364, 0.666869, -1.4049484, 0.01638932, -0.21049386, -0.21376845, 0.18426754, 1.1292981, -0.88962936, 0.50769687, -0.34927136, -0.17214029, -0.45561457], [-0.40401196, 0.4342167, 0.9536948, 0.51369345, -0.4048076, -1.2122365, 0.27203116, -0.07418819, 0.3413691, 0.5072918, 1.2114727, -0.8539228, 0.123758204, 0.18269986, 0.122542664, -0.38441244], [-0.14682317, 0.4141427, 0.81890595, 0.27501836, -0.6492326, -1.0330579, 0.70597214, -0.42155945, 0.22202188, 0.16663918, 1.2577034, -0.6918858, -0.09409118, -0.031073097, 0.047250208, 0.08822468], [-0.6663208, -0.33635342, 0.6747931, 0.19624783, -0.11060914, -1.1748707, 0.9895145, -0.3928129, -0.16180848, -0.007767607, 1.4549582, -0.60388947, -0.010762502, 0.264454, 0.2535248, 0.07981266], [-0.27335104, 0.13038324, 0.44705305, 0.26345566, 0.29518583, -1.0802426, 0.7052999, -0.59996855, 0.14233129, 0.2283708, 1.7275186, -0.5831015, 0.05308947, 0.1150243, -0.092598505, 0.3483683], [-0.15379064, 0.6260601, 0.42571214, 0.6660491, -0.08104274, -0.5318458, 0.6778545, -0.19815964, -0.23166989, -0.09868998, 1.8111173, -1.0118679, 0.32447034, 0.25782108, -0.08609662, -0.32867795], [-0.35625464, 0.4661691, 0.5471688, -0.026478464, -0.02619597, -0.47471017, 1.0357515, -0.17587423, -0.16157052, 0.170855, 1.441354, -0.6222158, -0.13780078, 0.6298572, 0.051526677, -0.17118545], [-0.1490927, 0.8835975, 0.042067293, -0.25028646, 0.8954082, -0.08420016, 0.9507489, -0.061383083, -0.44742677, 0.6120189, 1.6267722, -0.29753974, -0.10738983, 0.835187, -0.21683125, 0.24539775], [0.74607086, -0.0006836175, 0.45954606, 0.84381497, -0.9298778, -0.1257246, 0.11711255, 0.14898193, 0.3314029, 0.3047351, 0.12735784, -1.254308, -0.35447738, 1.1535524, 0.63678014, 0.24242683], [-0.36995035, 0.39979535, 0.4545478, 0.27231556, 0.25150427, 0.0769121, 0.47048402, 0.045214005, -0.46225142, 0.15448657, 2.208473, -0.6999236, -0.42006284, 0.367754, -0.23358485, -0.14159097], [-0.04978332, 0.48964277, 0.79371727, 0.5807501, 0.18565093, -0.454479, 0.6831095, -0.09306875, -0.39432004, -0.025143582, 1.8514885, -0.43747792, -0.32819077, 0.14025353, 0.0733033, -0.2574381], [-0.062059987, 0.74321014, 0.63101727, -0.17877755, 0.6067919, -0.5205682, 0.96002704, 0.17437173, -0.0062643187, -0.036673352, 1.9567449, -0.24394442, -0.6535124, -0.032951042, 0.19615172, -0.00961507], [-0.33500013, 0.0033070308, 0.79278404, 0.7597912, 0.12528688, -0.18492994, 0.79302484, 0.09489715, -0.14999907, -0.033872776, 2.164954, -0.3795999, -0.23515108, 0.3923551, 0.33208013, 0.018080361], [-0.38970676, -0.06744418, 0.68996596, 0.9004055, -0.016432181, -0.28357705, 0.00047097908, -0.52774245, -0.14277275, -0.06985692, 2.0611994, -0.5454096, 0.19719802, -0.33442295, 0.44518146, -0.14120892], [-0.20904523, 0.05852981, 0.16671793, -0.2280094, 0.040451545, -0.14123788, 0.21478088, -0.788589, -0.6147265, -0.08270541, 2.2774882, -0.49472818, 0.3307013, -0.060569055, 0.31842312, 0.48452327], [-0.4860496, -0.21396872, 0.48394683, 0.21220475, 0.521223, -0.06983475, 0.6259982, -0.8781035, -0.42385072, -0.023065943, 1.7319603, -0.29496452, 0.18758333, -0.9300382, -0.5726957, 0.21508133], [-0.8990097, 0.32037863, 0.003010943, 0.20413108, 0.12634453, 0.078206755, 0.35188004, -0.4684605, -0.53630483, -0.42132437, 1.8892778, -0.53584653, 0.6833308, -0.08290064, -0.44375032, -0.06365989], [-0.5248762, -0.06250596, 0.33442834, 0.06504996, 0.018058497, 0.22357763, 0.41954258, -0.2865718, -0.31504026, 0.09454258, 2.1910653, -0.22542839, 0.3468769, 0.1727794, -0.1347651, -0.015214086], [-0.36819017, 0.46302024, -0.09561555, 0.080283396, -0.29237667, 0.11126003, 0.22052251, -0.23990881, -0.4975932, -0.53952783, 2.2685187, 0.06246953, 0.34685287, -0.32762367, 0.052429143, -0.10340184], [0.31280977, -0.6613681, 0.2732834, 0.50288504, -1.16066, -0.011953368, 0.44933355, -0.017703537, 0.10649127, -0.059355363, -0.32706094, -1.1882596, -0.763588, 1.3563643, 0.06224385, -0.184698], [-0.18537298, 0.55013067, -0.19844571, 0.0267755, -0.36684704, 0.32103342, 0.5111389, -0.13948914, -0.08856889, -0.9469801, 2.252793, 0.064710565, 0.17060645, -0.47189268, 0.39210194, 0.39128125], [-0.21969916, 0.26486042, -0.047079854, 0.19028717, -0.539516, 0.5462184, -0.19657159, -0.6294111, -0.12388665, -0.61545855, 2.2021174, -0.3862345, 0.4710027, -0.14545175, -0.4827798, 0.028661579], [-0.23571792, 0.1303867, 0.0017370086, 0.522243, -0.13603815, 0.26791102, -0.08078483, -0.35782048, -0.11898715, -0.6264748, 1.7147388, -0.15859953, 0.9050931, -0.06947323, 0.47434628, -0.2304709], [-0.035329424, 0.5967083, -0.022160843, 0.58586174, 0.27067974, 0.23079024, -0.21979399, -0.28075373, -0.08738783, -0.5365811, 2.011558, -0.1458593, 0.6824001, 0.45586872, 0.0007954191, -0.37380108], [0.23884186, 0.12136221, -0.14116846, -0.13153583, 0.16456714, 0.1457332, -0.05411041, -0.3116379, -0.109710224, -0.6798788, 2.493554, -0.16464166, 0.612941, 0.6533863, 0.16713522, 0.24266674], [0.23691292, 0.30688602, -0.24335435, -0.20139123, 0.3017588, -0.16703442, 0.49646056, -0.16239502, 0.6258189, -0.18360192, 2.35088, 0.24324057, 0.33062312, 0.29599467, 0.31412175, -0.47742188], [0.15509206, 0.38591394, 0.028997298, -0.086773485, 0.034256432, 0.4002985, -0.25127295, -0.13094534, -0.012245133, -0.2468404, 2.184774, -0.12196795, 0.86499, 0.33662358, -0.0775368, 0.1260815], [-0.1445106, 0.3300044, -0.022619834, -0.18075432, 0.3126086, -0.20630234, -0.09352319, 0.10036545, -0.13006762, -0.60713905, 2.098461, -0.8487478, 0.664008, 0.07920495, 0.022959692, 0.32267737], [-0.109347105, 0.22164688, 0.23714107, 0.035208695, 0.50752085, -0.88862336, -0.4275896, 0.09649932, 0.11658039, -0.4598324, 2.1000257, -0.23340759, 0.5926924, 0.31744856, 0.2268107, 0.22085288], [0.0033653902, -0.0169709, 0.0032974882, 0.32896444, 0.7950526, -0.4632117, 0.09115247, -0.0058282423, 0.27384955, -0.03770622, 1.7548205, -0.7302351, 1.3135028, -0.039823413, -0.12768862, 0.22577669], [-0.22034386, -0.2944073, 0.027570717, 0.543154, -0.75278866, 0.14022842, 1.0089478, -0.03261479, 0.17594783, -0.22883111, -0.014226646, -1.2188761, -0.70099837, 1.4317982, 0.2206523, -0.4212614], [0.33435714, -0.0061048246, 0.36356735, 0.18068528, 0.7552146, -1.1346152, -0.31073585, -0.26089296, 0.49714357, -0.340236, 1.3680665, -0.7327407, 1.1057786, -0.6776506, 0.072988085, -0.014325894], [-0.5303428, -0.17193934, 0.34539953, 0.011178817, 0.4631145, -0.7915421, -0.20852382, -0.04852314, 0.36444855, -0.38827443, 1.5914209, -0.6702512, 1.0221099, -0.9584901, -0.21146323, -0.08337885], [-0.13540955, -0.35648137, 0.6736856, -0.60868376, 0.5384824, -0.96783054, 0.03632352, -0.12192881, 0.3910426, -0.35210946, 1.2975624, -0.35789737, 0.7332894, -0.96722597, 0.37844476, -0.24391003], [-0.27691278, -0.15969592, 0.22551788, -0.82503587, 0.43011045, -0.63659024, -0.15716988, 0.2912831, 0.071998656, -0.67871016, 1.2658056, -0.73780155, 0.65071124, -0.9782212, 0.30302122, 0.06879764], [0.5013651, 0.31719357, 0.32874867, -0.5334845, 0.5276516, -0.8195819, -0.3040599, 0.10799037, -0.393854, -0.74206156, 1.9821824, -0.58222437, 0.51692057, -0.54797083, -0.029303942, 0.25117785], [0.7860185, -0.15803106, 0.4423847, -0.59607893, -0.2842234, -0.71213233, -0.19135468, -0.024528712, -0.0351019, -0.36161372, 1.679094, -0.353044, 0.8929646, -0.8951387, 0.024745377, 0.09402706], [0.26519856, 0.12911455, 0.13645287, -1.1297895, 0.31931674, -0.5481774, 0.24891865, 0.38959464, -0.4827321, -0.5452236, 1.4087622, -0.25875646, 0.6738176, -1.0068071, 0.13772628, -0.46461925], [0.075460166, 0.45880976, -0.06848112, -0.7001559, 0.18365827, -0.090744555, 0.09536672, 0.2622468, 0.18456484, -1.1725708, 1.5754278, 0.26157728, 0.2986536, -0.7623397, 0.52952266, 0.47339898], [-0.024161773, 0.23969607, -0.020114902, -0.80756634, 0.097841784, -0.5241807, -0.2805136, 0.10783438, 0.2631081, -1.1022639, 1.4262569, 0.23544283, 0.33447874, -1.1505537, 0.7635123, 0.24778645], [-0.309742, 0.301106, 0.033913415, -0.5594863, -0.3068642, -0.5468416, 0.07470354, -0.034125734, 0.3840009, -1.3013755, 1.4471626, 0.008026162, -0.07225057, -1.268701, 0.5946325, 0.16069539], [-0.5292657, -0.42548198, 0.15088996, 0.553015, -0.83757746, 0.07720047, 0.52803344, -0.18375641, 0.2090279, -0.22728665, -0.041263826, -1.6422515, -0.20222709, 1.4304608, -0.31878653, 0.14511314], [0.30932933, 0.3055193, 0.28008977, -0.690521, -0.42392257, -0.8121254, 0.3403064, 0.3711886, 0.07037421, -0.3821035, 1.2286503, -0.26687396, 0.7535104, -0.7044673, 0.74248785, 0.7310828], [0.19921918, -0.042136464, 0.5082165, -0.9461874, -0.2693098, -0.08410353, -0.0031059522, 0.382971, 0.060679726, -0.39558133, 1.48343, -0.22593263, 0.90922284, -0.6402488, 0.46468955, 0.0077039422], [-0.12840092, -0.060732815, 0.3231169, -0.97921866, 0.012703528, -0.0780123, 0.24059539, 0.5500743, 0.0371873, 0.012340036, 1.5126055, -0.50721914, 0.8037598, -1.2044116, 0.1054007, -0.37993237], [0.14221016, 0.5547006, 0.17307442, -0.15933219, -0.08222354, -0.50213844, -0.5081841, -0.08388438, -0.5745708, -0.07531992, 1.5473306, -0.65838253, 1.026135, -1.0646768, -0.18827078, -0.71350235], [0.3924753, 0.3509254, 0.60158294, -0.1857581, 0.05149487, -0.40376326, -0.18875563, -0.25768754, -0.4632037, -0.47622782, 1.4328486, -0.6240214, 1.3395802, -0.92643255, -0.27770397, 0.16881667], [-0.13769558, 0.11251209, 0.50876015, -0.62911516, -0.08926337, -0.16512533, 0.19855027, 0.5680322, -0.51449925, -0.53323, 1.2691927, -0.06411645, 0.9451999, -0.94764394, -0.33393678, 0.3851486], [-0.3432462, 0.5823182, 0.6515527, -0.93020535, -0.288931, 0.5705544, -0.045792896, 0.61610854, -0.018522093, -0.20853297, 1.0353858, 0.06973361, 1.15606, -1.1479534, -0.19950655, -0.009628219], [-0.26807654, -0.023615025, 0.62268835, -0.41491902, 0.053311598, 0.6553786, 0.120713264, 0.4271984, 0.30953455, -0.21032391, 0.8952851, 0.4417208, 1.0791949, -1.3488164, 0.08824816, 0.742612], [-0.108342886, 0.42917466, 0.59683686, -0.15106592, 0.70025617, 0.31112555, -0.55452055, 0.36810568, 0.27679282, -0.3874535, 0.70768285, -0.23346439, 1.0012983, -1.387855, 0.015450242, 0.7469398], [-0.20180142, 0.88967884, 0.5316589, 0.24427886, 0.17198972, 0.60577077, 0.028504485, 0.07043991, 0.51342684, -0.7485155, 0.61028844, 0.48832855, 0.81692696, -1.0858788, 0.2332374, 0.7730905], [-0.92278045, 0.070769906, -0.008142435, 0.8604623, -1.0836217, 0.44629365, 0.3576209, 0.009706308, 0.29744026, -0.0058929697, 0.5353863, -1.3381076, -0.14538504, 0.8282281, -0.2756837, 0.13371812], [-0.0040366235, 1.3795131, 0.8473875, 0.15504603, 0.01102767, 0.12052613, -0.42066365, 0.11075556, -0.76517135, -0.74869007, 0.60438335, 0.45994502, 0.681689, -1.1059974, -0.7777193, -0.002715073], [-0.018613396, 0.87250215, 0.851431, -0.34091407, -0.030574264, 0.19954225, -0.3321085, -0.3473801, -0.45028532, -0.6268906, 1.0876395, 0.6173717, 0.890901, -1.1161371, -0.2856869, 0.022844553], [0.08482755, 0.73537177, 0.6359053, -0.2882567, -0.5678327, 0.47543594, -0.73752546, -0.11462748, 0.19331405, -0.95348567, 1.0438286, 0.5361728, 0.86353064, -0.6317429, -0.19538267, -0.030283678], [-0.36448297, 0.3947512, 0.4317341, -0.060644347, -0.8771136, 0.49426752, -0.44743463, -0.6865633, 0.2856644, -1.0432211, 0.5663459, 0.13968262, 0.6032138, -0.8158743, -0.33922967, 0.24392335], [-0.20081009, 1.7133703, -0.094871804, 0.11892654, -0.5027644, 0.040408716, -0.15355611, -0.44884175, 0.37165922, -0.8707519, 0.07469264, 0.117251664, 1.0328562, -1.1277778, 0.22071967, 0.40002778], [0.34477773, 1.4302132, 0.8609059, 0.09889134, -0.61309665, -0.0102048665, -0.6056848, -0.78629327, 0.56441015, -0.398423, 0.4850857, -0.06902952, 1.0490061, -0.78703, 0.3795663, 0.13306093], [0.13740481, 1.3080854, 0.5373222, 0.3710739, -0.26830205, 0.32699355, -0.9851819, -0.28680632, 0.45819736, -0.4593709, 0.6555572, -0.21727733, 0.8287681, -0.80597615, -0.119261965, 0.5811753], [-0.050555814, 1.1703943, 0.19168575, 0.19268277, -0.67139274, 0.58880955, -1.0493096, -0.44756818, 0.20052572, -0.5783449, 0.28272694, -0.028057277, 1.1078571, -1.0245382, 0.094621584, 0.6333858], [0.060942344, 0.7971316, -0.2714331, 0.4033259, -0.58917964, 0.94414395, -0.8919044, -0.21284173, -0.44130033, -0.86525255, 0.544925, -0.26140025, 1.0450444, -0.98617244, -0.51999766, 0.467402], [0.21429166, 0.56672925, 0.34481126, 0.15317002, -0.8426527, 0.74189544, -1.1690594, -0.7573043, -0.19587976, -1.0805029, 0.44209188, 0.15109952, 0.5137751, -0.88695085, -0.43820232, 0.38086224], [-1.2086326, -0.08224523, 0.08141028, 0.6455518, -0.44107133, -0.18141505, 0.73009485, -0.007177853, 0.09847895, -0.014917489, 0.1735251, -1.2163756, -0.13851881, 1.5037355, -0.4086879, 0.17612572], [-0.09595025, 0.7913696, 0.2905646, 0.21533112, -1.0551733, 0.6966491, -0.8283159, -0.7179886, -0.052761264, -0.9418315, 0.7345482, -0.37235856, 0.599263, -0.09925216, -0.42106727, 0.20734316], [0.49898687, 0.93944484, 0.12250973, 0.060192224, -0.23049273, 1.0253509, -0.89128894, -0.70869756, -0.45264372, -0.2133442, 0.8888505, -0.68043303, 0.6922443, -1.0547155, -0.12127328, -0.000155414], [0.39823562, 0.93506086, 0.86563694, 0.29121274, -0.09264369, 0.45429504, -0.64740777, -0.8238486, -0.4873062, 0.0066197035, 1.0253432, -0.78706056, 0.6514916, -0.92292935, 0.43847784, -0.07566717], [0.19369628, 1.0781962, 0.5540065, 0.3798924, -0.5569882, 0.29988077, -1.0297794, -0.68396527, -0.6093031, 0.31076393, 0.7170766, -0.09003458, 1.1259333, -1.0886428, 0.27845424, -0.1777684], [0.36917105, 1.5004262, 0.24629787, 0.15672958, -0.09746256, 0.14934248, -0.85707015, -0.4914907, -0.23406745, 0.059849728, 0.73972845, -0.40072736, 0.98870796, -1.1105163, 0.34867647, -0.13722655], [0.17310946, 1.3355052, 0.28424406, 0.28365403, 0.67467767, 0.21404234, -0.6502615, -0.34022442, -0.01258721, 0.15811394, 0.9197179, -0.49080816, 1.1451114, -1.0458747, -0.16701607, 0.08685096], [-0.0020291859, 1.8242215, 0.1436553, 0.44192457, 0.49791566, -0.5803866, -0.10878425, -0.33415207, -0.29342526, 0.11311013, 0.023990119, -0.19780974, 0.87470514, -1.2230256, 0.19734032, -0.5205014], [0.95912886, 0.9465003, -0.2063376, 1.0322162, 0.45798394, 0.38706952, -0.03957607, -0.72432107, -0.22409856, 0.33997515, 0.43735835, -0.23915613, 1.0336906, -1.1574652, -0.16785336, -0.82730085], [0.6141431, 0.69378036, 0.17482503, 0.6819768, 0.31510115, -0.26074752, -0.2944458, -0.2577965, -0.23150468, -0.12611951, 0.8055567, -0.44886187, 1.0492429, -1.0818685, -0.7772043, -0.8239136], [0.23229614, 0.6741154, 0.066736355, 0.59010506, 0.80807054, -1.0342715, -0.32557574, -0.26764095, -0.10508857, -0.3644566, 0.5286317, -0.5372171, 0.81503814, -1.0980153, -0.8677278, -0.2264412], [0.7516035, -1.1053928, 0.7770646, 0.5881213, -0.05000269, 0.7978559, -0.78562385, -0.63894475, -0.1784957, 0.2694898, 0.48098564, -0.28683895, -0.034645177, 0.18347128, 0.1621611, -0.0023871046], [-0.8494633, 0.35373217, -0.034382127, 0.9732746, -0.29575717, 0.019777233, 0.42125586, -0.46717674, -0.3651943, -0.021573279, 0.05153559, -1.2776481, 0.3095761, 0.9403173, -0.3904037, 0.27103397], [0.13722467, 0.6712368, 0.3445114, 0.36195466, 0.9636911, 1.3203226, -0.5876905, 0.054349553, 0.045345813, -0.098421216, 0.7380819, -0.32339188, 0.71964467, -1.038809, -0.46925956, -0.13025063], [0.35599422, 0.9705204, -0.0526118, 0.26026598, 0.26327446, 1.1907747, -0.6639218, -0.4039394, -0.35704172, 0.065245844, 0.8243648, -0.2682978, 0.48560318, -1.1889075, -0.072242655, -0.3487933], [0.2668554, 0.78685683, -0.17711742, 0.32179123, 0.0064853425, 1.4101356, -0.4196998, -0.13959369, -0.23724306, 0.3624323, 0.4002096, -0.67488986, 0.70494205, -1.3159215, -0.8056552, -0.4447691], [0.08904554, 0.68729496, -0.6904185, 0.45419428, -0.93720263, 1.3055737, -0.7251676, -0.35282597, 0.14294218, 0.2005255, 0.06464036, -0.75948554, 0.50034, -1.0467498, -0.4982776, -0.47767282], [0.5414123, 0.8858216, -0.68482715, -1.162718, 0.21459882, 1.6152359, -0.28632256, 0.009044905, 0.21545753, 0.23808977, -0.21236925, -0.041063648, 0.39802802, -0.95357996, -0.13819848, -0.35359502], [0.0070983227, 0.40898177, -0.02022491, -0.8598081, 0.67889583, 1.1165854, -0.6530787, -0.15295696, 0.20409489, 0.26504612, -0.3785511, -0.52772635, 0.85062575, -1.3899544, -0.22606713, -0.019182531], [-0.28930274, 0.5363783, -0.28228757, -0.892166, 0.2788136, 1.3798013, -0.306694, 0.29218078, -0.0442561, 0.26619217, -0.48850644, -0.28812528, 1.0515913, -0.9849609, -0.30620128, -0.17591026], [-0.3359601, 0.6087809, 0.551242, -0.68322694, -0.6924529, 0.9400795, -0.41083482, 0.21607913, -0.5128001, 0.47109538, -0.2926337, -0.0808253, 1.2210069, -1.1829073, -0.34925163, -0.10770879], [0.3974849, 0.5115088, 0.27259547, -0.29356915, -0.46210402, 0.8372968, -0.57319283, -0.11139351, 0.1462222, 0.8764058, -0.61337095, 0.28667566, 0.72840697, -1.0323992, -0.517903, -0.5949421], [0.34728342, 1.0884863, 0.002855483, -0.6560734, -0.9267256, 0.6730977, -0.49604326, 0.14924382, -0.06488913, 0.5830491, -1.034639, 0.648714, 0.7769017, -0.43669683, -0.046321917, -0.19571473], [-0.12745489, 0.024003176, -0.0077716485, 0.8441719, -0.9291043, 0.8992109, 0.58185977, -0.442902, 0.042959094, -0.25291982, 0.0776727, -1.3051609, 0.015678424, 0.8006106, -0.15292062, 0.5254656], [0.47889373, 0.86336905, -0.31395635, -0.839718, -0.5689795, 0.62792414, -0.49845588, 0.20925914, -0.28070953, 0.7398624, -1.1419598, 0.5652131, 1.0993204, -0.7136973, -0.18992732, 0.07782772], [-0.20992434, 1.2023867, 0.2289678, -0.3060303, -1.0176172, 1.0326189, -0.9616563, -0.2349111, -0.05113554, 0.31456563, -0.6272642, 0.020342123, 0.9112073, -0.31321672, -0.40696892, -0.37950256], [0.06310119, 1.0506523, 0.17167078, 0.2654022, -0.55934817, 0.82684404, -1.2557356, 0.06261724, 0.30933103, 0.6684331, 0.13217059, -0.40064356, 0.93553007, -0.49593598, -0.6121411, -0.82661074], [-0.15097539, 0.57262486, -0.39494056, 0.3406083, -0.98299557, 1.0725129, -1.019199, -0.44732085, -0.11785709, 0.6290153, 0.078082345, 0.1712416, 1.0252007, -0.6144058, -0.5379445, -0.4963839], [0.22440831, 0.19793642, 0.036151484, -0.20884708, -0.69370127, 0.96120673, -0.8351225, -0.3256788, -0.45374778, 0.8538181, -0.29900655, 0.26629075, 0.8195071, -0.71082294, -0.42978856, -0.60706174], [-0.28430584, 0.17230642, 0.13572966, -0.064433604, -0.46767396, 1.1356473, -1.244821, 0.059836198, -0.11209839, 0.9175784, 0.41765964, 0.044451013, 0.8109657, -0.23865435, -0.6303179, -0.80500853], [0.13619481, 0.2650675, -0.41131705, 0.41588742, -0.9057479, 0.41337225, -1.0116676, 0.3385644, -0.32831746, 1.0667325, 0.08972753, 0.53916514, 0.75005186, -0.3388453, -0.07334292, -1.067641], [-0.18383606, 0.20517364, 0.27410358, -0.1119009, -0.9040746, 1.0331743, -1.1156824, -0.17478819, -0.37147745, 0.8489236, 0.09025928, 0.7400567, 0.95918703, -0.5231375, -0.3991307, -0.99808365], [-0.15261206, 0.23176123, 0.4890216, -0.4883292, -0.8744974, 0.4752529, -1.1577989, -0.07604806, -0.0894159, 0.95734644, -0.013438239, 0.9857981, 0.5133503, -0.08791321, 0.45156744, -0.7317532], [-0.68308383, 0.19316678, 0.3660109, -0.031389225, -0.524106, 0.51539725, -0.8957685, 0.24598697, 0.17478217, 0.67640716, 0.22564127, 0.7927058, 0.8524507, -0.08683223, 0.76701343, -1.0737754], [-0.12358429, 0.108079776, -0.06680948, 1.0220084, -1.1689526, 0.44638023, 0.17794688, -0.14108177, 0.5509043, -0.2479285, 0.2599382, -1.3983935, 0.30585057, 0.8826013, -0.11933039, -0.111376196], [-0.45533523, -0.11337628, 0.18138799, -0.08007242, -0.81939006, 0.526752, -1.176819, 0.045352027, 0.050061777, 0.9461638, 0.1677528, 0.8123535, 0.8772591, -0.19449316, 0.39226946, -0.82037485], [-0.1210841, 0.27641788, 0.2999837, -0.3309941, -1.2717665, 0.59844244, -0.98795855, -0.14263126, 0.37340796, 0.6634118, 0.3931324, 0.82794696, 0.77856755, -0.14606857, -0.050579388, -0.98691547], [-0.32840398, -0.31973693, 0.7783721, -0.18792963, -0.9888474, 0.793939, -1.1454747, 0.023887675, -0.064802445, 0.42880183, 0.2799663, 0.5899016, 0.8837782, 0.058799684, -0.2499849, -0.51193637], [-0.49961963, 0.11181229, 1.2318581, -0.20456795, -1.0668876, 0.69929504, -0.51889026, -0.1567692, -0.16590823, 0.6370457, -0.12740286, 0.8019561, 0.31940863, -0.18109629, -0.39405015, -0.8834364], [-0.28484604, -0.35623682, 1.6158973, -0.11822574, -0.47608835, 0.36838695, -0.5773121, 0.3065016, 0.17880704, 1.1111276, 0.63868195, 0.22958589, 0.21254255, -0.007510977, -0.19807447, -0.8009388], [-0.6780966, 0.21844725, 1.7750901, -0.4357881, -0.70414567, 0.72139204, -0.2065033, 0.19101702, 0.35288113, 0.629748, 0.0869982, 0.45578828, 0.42000332, -0.12270843, -0.69966096, -1.0651829], [-0.82552785, 0.36431846, 1.4653536, -0.25989524, -1.0795443, 0.57811296, -0.56307906, 0.32763922, 0.4134613, 0.4931789, -0.26328614, 0.609465, 0.46821037, -0.25397426, -0.6530894, -0.8567066], [-0.7677581, 0.14577498, 1.1954391, -0.5377192, -1.2119442, 0.53308094, -0.88237363, -0.16464533, 0.7770339, 0.26355812, 0.5437275, 0.0049171294, -0.054968175, -0.01901183, -0.31041113, -0.48667535], [0.03800989, 0.47259593, 1.2542585, -0.17416763, -1.161634, 0.7323307, -0.7007348, 0.04895417, 0.678588, 0.59432185, 0.5890165, 0.3219173, 0.030801121, -0.015566095, -0.10167356, -0.8312881], [0.06862819, -0.10553454, 1.4023266, 0.06256435, -1.0880582, 0.40779716, -0.54405785, 0.13588446, 0.7694241, 1.10417, 0.8726344, 0.008475223, -0.09449534, 0.56092966, -0.39447632, -0.29263824], [-0.94928056, 0.15171698, -0.0039200387, 1.0671867, -1.1677798, 0.9287897, 0.3078567, -0.30480298, -0.00088607677, -0.083408594, 0.25855193, -0.8820775, 0.28260043, 0.42386755, 0.27659658, -0.18847373], [-0.16575147, 0.4359078, 1.8716098, 0.26581118, -0.7935242, -0.3613788, -0.20792289, -0.06630073, 0.0026999558, 1.1839383, 0.86333054, -0.23269725, -0.02734453, -0.37030685, -0.48791492, -0.50456375], [-0.045688577, 0.6879082, 1.3653662, -0.11735363, -0.2908974, 0.61590475, -0.50512725, 0.35471013, -0.072688684, 0.8614165, 0.21009512, 0.48479924, 0.54749113, 0.10548065, -0.71397054, -1.22137], [0.04184014, 0.15503854, 1.7187356, 0.11330571, -0.7253722, 0.6494326, 0.017715894, 0.6073117, 0.299006, 0.657933, 0.29310957, 0.14267604, 0.19898005, -0.38344988, -0.41219273, -1.032975], [0.38561746, 0.68529636, 1.5461549, -0.05433832, -0.25208116, 0.5613902, -0.5821881, -0.1661985, 0.15882176, 0.9937655, 0.20961377, 0.17223997, 0.07447884, 0.14900883, -0.21331745, -1.0046517], [-0.27115193, 0.1429365, 1.4929354, 0.57517076, -0.21828274, 0.38990822, -0.56067103, 0.09434423, -0.014608729, 1.3048949, 0.94857043, 0.31636006, 0.05425158, 0.15258354, -0.019054823, -1.0422876], [-0.1546825, -0.053454258, 1.8219666, 0.5366199, 0.030850787, 0.34352535, -0.0827992, 0.16916832, 0.14834683, 1.2910088, 0.4839218, 0.56755835, 0.023497507, -0.09457887, 0.25413904, -0.71157026], [-0.30976275, -0.15054917, 1.3494743, 0.58120424, -0.052390333, 0.63161606, -0.20042418, 0.25071776, 0.15951559, 1.4357604, 0.29048967, 0.34847695, -0.37183255, 0.7412043, 0.19108932, -1.1051155], [-0.23557693, 0.03904826, 1.3526138, 0.73323447, -0.3021577, 0.73791367, 0.072160155, 0.28349236, 0.14581306, 0.8480795, -0.109402984, 0.23381191, 0.008629365, 0.6490992, 0.13872236, -1.0338566], [-0.03004416, 0.015681913, 1.9042692, 0.3048074, -0.14635032, 0.62743205, 0.020147163, 0.09711206, 0.002153931, 0.4022867, -0.39145532, 0.7071786, -0.36529395, 0.7203638, -0.5317142, -1.0437267], [-0.13139245, -0.18673125, 1.4809914, 0.37351462, -0.40797475, 0.85378456, 0.2837905, 0.067953736, -0.5589792, 0.791019, 0.17108493, 0.1406502, -0.45703667, 0.7590537, -0.18009335, -1.2137215], [-0.31172478, 0.28000662, -0.50706846, 1.0262436, -1.131597, 0.8984554, 0.077575654, -0.1921098, -0.0032910572, 0.022292215, 0.5503512, -1.0457267, -0.0094709275, -0.19969907, -0.24519107, -0.7394851], [-0.13773312, -0.46920446, 1.3923185, 0.31475168, 0.05538683, 0.29449812, -0.123908095, 0.18695438, 0.13136686, 1.0812675, 0.008650753, 0.5075439, -0.3254914, 0.83763474, 0.82389045, -0.8277226], [-0.39185876, 0.06377618, 1.0294994, 0.77361375, -0.5315047, 0.07686093, -0.58968085, 0.61413985, 0.6819911, 0.97006315, 0.2329223, 0.40817806, -0.6578499, 0.7230246, 0.6881841, -0.698852], [-0.83953655, -0.061946858, 1.2475024, 0.64607954, -0.148674, -0.063858725, -0.40866014, 0.56275237, 0.02324348, 1.0103825, 0.14788294, 0.64614964, -0.4153415, 0.5915255, 0.4293056, -1.0157608], [-1.4018697, 0.07129219, 0.6788489, 0.2984304, -0.49643493, -0.17557546, -0.46647146, 0.32692134, -0.008734373, 0.7113868, 0.041243486, 0.9193958, -0.7539503, -0.15586412, 0.8193794, -1.037224], [-1.2256279, 0.42062357, 0.9809492, 0.25857815, -0.71285236, -0.26071632, -0.21759252, 0.6683787, 0.17352732, 1.068211, 0.49873722, 0.4135622, -0.25864786, -0.14452523, 0.34774917, -0.6071248], [-0.59583473, 0.1835929, 1.2254258, 0.8062183, -0.12526186, -0.2899694, -0.43241823, 0.69100606, 0.05833107, 1.1037254, 0.3666625, -0.032962188, -0.5874869, -0.057346657, 0.42052534, -0.7158549], [-0.46216184, 0.8073564, 1.2835351, 0.42529774, -0.26535526, 0.038725626, 0.05967722, 0.46952745, 0.5075718, 1.266966, 0.4240447, 0.41130894, -0.55032825, -0.087818936, 0.12075477, -0.37972903], [-0.7615786, -0.06632173, 1.1058029, 0.91180223, -0.73394567, 0.031745568, -0.05138855, 0.5134827, 0.80205137, 0.82012844, 0.23239617, -0.09800428, -0.880445, -0.012053986, 0.6647597, -0.60304785], [-0.998042, -0.08339886, 1.0165305, 0.8776575, -0.40840292, 0.06702164, -0.2904663, 0.72654873, 0.3411072, 0.86712235, 0.025360286, 0.16591533, -0.60929424, -0.8080968, 0.76676774, -0.46694443], [-1.3331991, -0.24342439, 0.89605975, 0.4822776, -0.39413643, -0.019099945, -0.04924144, 0.9908623, 0.100845866, 0.3771641, 0.1781129, 0.40602195, -0.29262248, -0.8118202, 0.4943061, -0.83293855], [-0.77587926, 1.1500374, -0.006217959, 0.9529905, -1.1542605, 0.85216165, -0.115357146, -0.26902148, 0.17858128, 0.05011238, 0.11560794, -0.71314746, -0.27714357, -0.25063285, -0.0637408, -0.079369865], [-1.340686, 0.092825554, 0.78074306, 0.58264303, -0.4796853, 0.27318057, 0.42433193, 1.1379542, 0.31674853, 0.20818925, 0.2943549, 0.23681346, 0.31803894, -0.81906676, -0.09849538, -0.9929741], [-1.0155187, 0.11442059, 1.3101135, 0.7517713, 0.12098199, -0.4110737, 0.47859153, 0.7565515, 0.36430815, 0.40217692, 0.07663649, 0.61691415, 0.3957999, -0.16004801, -0.2429984, -0.9421085], [-1.1669043, -0.051024113, 1.0061525, 0.5841528, 0.09730285, -0.15487292, 0.41279104, 0.8348815, 0.65951973, 0.5734765, -0.06313902, 0.5361644, -0.06361399, -0.2245589, -0.7218689, -0.78179854], [-1.2858747, -0.029887987, 0.96494526, 0.44057903, 0.082708664, -0.12826219, 0.5114345, 0.7657809, 0.2927278, 0.6498896, 0.33949292, 0.020831201, 0.5783763, -0.63201445, -0.06816356, -0.802452], [-0.85204935, -0.1933831, 1.4782927, 0.5615071, 0.20767397, 0.10069989, 0.8495862, 0.6164176, 0.6519046, 0.3143747, -0.031865377, -0.2360963, 0.22595169, -0.8952907, -0.38353512, -0.71733475], [-0.97447467, -0.8303715, 1.4232137, 0.90493065, 0.25976527, -0.22112878, 0.6544839, 0.44594625, 0.4387074, 0.19060652, -0.037319228, -0.39845535, 0.35941818, 0.08072172, -0.076413475, -0.41841316], [-1.6678971, -0.85849094, 0.973465, 0.31857902, -0.17766047, -0.09858041, 0.49179348, 1.3373486, 0.04862089, 0.53137344, 0.42166626, 0.022953052, 0.30661455, -0.37357625, -0.3816931, -0.13813181], [-0.8925327, -0.98338735, 1.1201533, 0.5308261, 0.007591541, -0.22604564, 0.7579129, 1.3035663, 0.15457532, 0.021172808, 0.53063047, -0.14119872, 0.09011553, -0.33328038, -0.4222997, -0.4939571], [-0.7290239, -0.41376308, 1.0284328, 1.0225782, -0.4812409, 0.065829776, 0.66957325, 1.1254001, 0.3063732, -0.010493376, 0.3018988, 0.57590955, 0.46080446, -0.33594826, -0.43622226, -0.8021696], [0.0045498232, -0.748215, 1.5082208, 0.8835785, -0.27703294, -0.095521085, 1.066157, 0.64257866, 0.7602834, 0.0894612, 0.24216294, -0.44420168, 0.004816564, -0.13695441, -0.35716388, -0.5052081], [-0.68350047, 1.1553284, 0.24385144, 1.2612914, -1.0025032, 0.5674462, -0.40689713, 0.2570862, 0.49579805, 0.21448424, 0.029684046, -0.5246853, -0.4953861, -0.04393242, 0.26505917, 0.3137959], [0.350161, -0.83137876, 1.5719384, 0.75327605, -0.4581566, -0.11295718, 0.67474824, 0.9854427, 0.75693953, 0.16662504, 0.16994469, -0.3545733, 0.16600238, -0.2130048, -0.026036264, -0.6753573], [0.075104006, -0.46521917, 1.5343239, 1.1440737, -0.23216298, 0.27099285, 0.6343971, 0.016100226, 0.5073517, 0.2440702, -0.07094758, -0.22049712, 0.6877932, -0.17600791, -0.4954705, -0.66261184], [0.134915, -0.34340346, 1.7048247, 0.95856583, -0.097312704, -0.08867075, 0.93265474, 0.50593746, 0.06571309, 0.37890768, -0.1358823, 0.2004621, -0.041869216, -0.64605886, -0.5532691, -0.38072437], [0.626018, -0.4100271, 1.6711179, 0.7751126, -0.10278736, -0.035637345, 0.94292027, 0.5869073, 0.7120191, -0.2475389, 0.39964205, -0.4789775, 0.19096437, -0.329762, -0.07594174, -0.5893874], [0.05143679, -0.3551319, 1.6643821, 0.9721383, -0.12743205, -0.25438833, 0.8378408, 0.2875831, 0.32044291, -0.06412048, 0.30897915, -0.15615162, 0.38604617, -0.54521936, 0.15541397, -0.7778955], [-0.06967473, -0.09155763, 2.0716257, 0.4628879, 0.4021192, -0.012555648, 1.036632, 0.25500193, 0.57033473, 0.47025883, 0.36256605, 0.0834949, 0.69367075, -0.80693704, 0.20711367, -0.6798065], [0.16595307, -0.10728069, 1.8755609, 0.4222604, -0.110828504, 0.14617501, 1.0082785, 0.21147448, 0.5390432, 0.8217618, 0.5609412, -0.012047721, -0.24132094, -0.625051, -0.00985909, -0.8779166], [0.17252634, -0.30742764, 1.6860753, -0.10735996, -0.25541043, 0.062370818, 0.95948786, 0.11186881, 0.5133349, 0.8382633, 0.3383495, -0.02186477, -0.43690813, -0.8904532, -0.32931918, -0.60909295], [0.32606563, 0.0977104, 1.7120749, 0.08784261, -0.21590862, -0.035768688, 1.4191805, 0.063666806, 0.26924312, 0.22003359, -0.37589338, -0.05532345, -0.10593303, -0.82481396, -0.09617439, -0.721601], [0.6076616, -0.35178065, 1.756225, 0.07885921, -0.0199576, 0.01927187, 1.1290972, -0.036832977, -0.12121386, 0.47233233, 0.09879165, 0.57261735, -0.15442497, -1.0164223, -0.19099861, -0.7004312], [-0.6494114, 0.45513868, 0.19783117, 1.2378275, -1.1518563, 0.7280595, 0.66467303, 0.071121104, -0.054499175, -0.13368711, 0.4362995, -1.5631403, -0.46388245, 0.22571531, -0.17744787, 0.32206836], [0.36561787, -0.256371, 1.1734642, 0.13248153, -0.11888724, 0.34446537, 1.0781221, 0.35509872, 0.13761196, 0.6432659, 0.21090688, 0.44505513, -0.42004836, -0.97815955, -0.59208345, -0.2956638], [0.40107277, -0.088077895, 0.9673588, 0.6788382, -0.44726926, 0.23443736, 1.2757427, 0.8032158, 0.045747396, 0.75177294, 0.093292505, 0.19149496, 0.051915217, -1.2792217, -0.67250353, -0.25860074], [0.33764303, -0.37587282, 0.68947774, 0.46075827, -0.104795344, 0.33352417, 1.4225074, 0.45413107, 0.13242489, 0.918695, 0.33959603, -0.16585937, -0.45277318, -1.6853907, -0.6114543, -0.042359397], [0.7660555, -0.43925515, 0.45973328, 0.30416492, -0.66518575, 0.32671797, 1.2249278, 0.613949, -0.113914296, 0.10211597, -0.07418073, -0.22581339, -0.046032704, -1.1258446, 0.040655278, -0.557929], [0.45137334, -0.22652777, 0.75673854, 0.8061113, -0.49253815, 0.6349919, 0.10095348, 0.69842106, 0.29216686, 0.8531501, -0.30939004, 0.17377767, 0.4251804, -1.1738253, 0.41172567, -0.3875342], [0.30998683, 0.21865878, 0.39331117, 0.48251426, -0.4872084, 0.4072914, 0.58365965, 0.8203859, 0.2992674, 0.46700367, -0.25095758, -0.3252277, -0.045204066, -1.3450272, 0.61053216, -0.33950356], [0.5505325, -0.058783375, 0.3241986, 0.68597835, -0.6356542, 0.2387196, 0.5012943, 0.8098784, 0.579074, 0.43030265, 0.15253723, -0.31398708, 0.34811887, -1.6233763, 0.57103306, -0.73760027], [0.64489293, 0.46015346, 0.3272324, 0.6970623, -0.6723995, 0.5319369, 1.0671879, 0.79611856, 0.39241898, 0.52153903, -0.19608554, 0.047592934, 0.14478956, -1.4959483, 0.07645145, -0.29633236], [0.1689752, 0.08230514, 0.057372868, -0.11689411, -0.86466104, 0.06734734, 0.59495705, 0.5262145, -0.5679649, 0.5122066, -0.5056072, -0.22848824, 0.05598435, -2.0118747, 0.5714208, -0.18044247], [-0.09511918, 0.016455883, -0.46536776, -0.39205343, -0.60420525, 0.15424575, 0.7540021, 0.6890446, -0.14691478, 0.7501561, -0.27598733, -0.22969304, 0.28135377, -1.5338569, -0.13403784, -0.15700772], [-0.73032147, 0.69137496, -0.008112177, 1.0625567, -1.5371006, 1.010467, 0.12196629, -0.03520716, 0.27385786, 0.087221965, 0.40806076, -0.7008543, -0.21168347, 0.5181387, 0.0053862403, 0.21615513], [0.35164538, 0.13983834, -0.3255496, -0.158935, -0.49244878, -0.021360178, 1.3356917, 0.6241501, 0.37674937, 0.8998406, -0.6950369, 0.09620538, 0.07162471, -1.5064931, 0.032825135, -0.2778783], [0.33277625, 0.22811748, -0.3954003, -0.117904074, -0.54174286, 0.099224046, 1.0126572, 0.12949383, 0.37961465, 0.9588144, -0.5079082, 0.4271141, -0.39466867, -1.6158624, 0.32243285, -0.5021467], [0.19047554, 0.36923808, -0.13898042, -0.17782857, 0.57080394, 0.25774834, 1.0687344, 0.16081433, -0.16173486, 1.0002849, -0.7601873, -0.2700705, 0.2716644, -1.1747231, 0.37305978, -0.8240593], [0.72094786, 0.048400134, -0.55928665, -0.11727779, -0.21697712, -0.02114903, 1.1625501, 0.7239415, 0.53282356, 0.5933711, -0.57597446, -0.4592907, -0.14812472, -1.4016112, 0.2360517, -0.67784166], [0.45707887, 0.97888297, -0.20915188, -0.12666087, 0.5820552, 0.21756431, 1.4142854, 0.29046243, -0.22179307, 0.8475636, -0.08873688, -0.21111147, 0.36172435, -1.3257438, 0.39505738, -0.34047765], [0.051456857, 0.44372457, -0.58762676, -0.022112567, 0.13831678, -0.0014188144, 1.4177607, 0.2830399, 0.5593158, 1.084681, -0.5175793, 0.0020827204, -0.07755905, -0.9923922, 0.2337179, -0.4747426], [-0.23845595, 0.29539013, -0.9560036, 0.17600663, -0.16377135, 0.21048672, 0.7855219, -0.09276635, 0.7295487, 1.2379388, -0.550984, 0.30825785, 0.100215085, -0.8551587, -0.087634526, -1.0195479], [-0.21084869, 0.67606866, -0.6879274, 0.015286025, -0.8081558, 0.13975567, 0.90019506, 0.30689058, -0.13265526, 0.8923825, -0.2771525, -0.2186226, -0.06892203, -1.2575866, 0.20466791, -1.1408417], [-0.5867322, 0.5496065, -0.74574757, 0.29535258, -0.5016524, 0.20710127, -0.20733461, 0.40784585, 0.12202936, 0.36723524, -0.37690902, -0.4512636, 0.14628507, -1.2642932, 0.18159457, -1.0242542], [-0.3598815, 0.7834941, -0.36319843, 0.449194, -0.7750422, -0.049171302, 0.42587522, -0.21230863, 0.3577064, 0.57535726, -0.22884539, -0.18619366, -0.05137507, -1.3942882, -0.3702416, -0.7051991], [-0.60022616, 0.36120597, -0.03186507, 0.95023966, -1.0803417, 0.35364014, -0.3581968, -0.14023551, -0.10206112, 0.19141695, 0.7897664, -1.1862187, -0.92273444, 0.3720827, -0.4153159, 0.27582717], [-0.5522865, 0.9861479, -0.461956, 0.04738603, -0.22994153, 0.06879898, 0.70879054, -0.6775753, -0.1506255, -0.115589276, -0.38714826, -0.38748527, -0.07771273, -1.3975111, 0.14331631, -0.6694615], [-0.052610673, 0.62875164, -0.43240878, 0.09823025, -0.94786465, -0.01719476, 1.1124586, -0.82637584, 0.2458422, -0.1013655, 0.3697108, -0.4983103, -0.15838173, -1.5286481, 0.25347158, -0.73922604], [-0.1554256, 0.86528605, -0.47806, 0.12980819, -0.6580249, -0.01739106, 0.963985, -0.561411, 0.316591, 0.17385511, -0.70660293, -0.47338557, 0.010006372, -1.2504961, 0.3115934, -0.55749065], [-0.43931463, 0.7516358, -0.75914776, 0.57897985, -0.5628354, -0.36787382, 0.9405441, 0.19557041, 0.22061148, 0.29082444, -0.7548543, -0.5895878, -0.3300907, -1.0338482, 0.51134866, -0.36141056], [-0.3849135, 0.68100965, -0.4889083, 0.44416568, -0.38408712, 0.027512949, 1.3060703, 0.17397748, -0.4479219, 0.05372894, -0.35497004, -0.52688426, -0.40280464, -1.1066649, 0.38060695, -0.4353528], [-0.39900368, 0.8911755, -0.45618343, 0.32729843, -0.31048566, -0.046832215, 0.61030316, -0.21723995, 0.7245571, -0.20043778, 0.13188794, -0.20463656, -0.247928, -1.2600286, -0.38044652, -0.99926215], [-0.7489943, 0.61339045, -0.58581525, -0.0048343553, -0.69414145, -0.39402178, 0.8006199, -0.20824333, 0.12030056, -0.2503209, 0.62868834, -0.22539699, 0.19140348, -1.035448, 0.023955384, -1.281103], [-0.9976239, 1.1045995, -0.65945107, 0.5720353, -0.020636562, 0.15012957, 0.67815346, -0.4498074, -0.41367292, -0.3504907, 0.22122195, -0.2830658, 0.063690625, -0.9048779, -0.1393667, -1.0074075], [-0.70492333, 1.1700361, -0.16767171, 0.5717238, -0.52402574, -0.12906069, 0.5844348, -0.39482296, -0.74296314, -0.37074548, 0.28036645, -0.7274034, -0.079706736, -0.8270221, -0.98928165, -0.79566896], [-0.9029546, 0.79369783, -0.024348246, 0.54428005, -0.5739934, 0.18347624, 0.86056787, -0.29320166, -0.21434972, -0.50747794, 0.06530615, -0.45521876, 0.66097265, -1.0341924, -0.2629087, -0.97828484], [0.43290508, -1.049159, 0.38059053, 0.17997198, -0.39763004, 0.2960835, -0.82139146, -0.5811058, -0.39314556, 0.6679354, 0.5375788, -0.3409963, -0.34723422, 0.6734127, 0.2452288, 0.28568393], [-1.1138169, 0.08250427, -0.044626396, 0.9528233, -1.1190863, -0.21719113, 0.16477105, -0.09769576, -0.13024442, 0.04580804, 0.57522047, -1.3101854, -0.5564464, 0.46304655, -0.16956191, 0.23640278], [-0.6245281, 1.2194935, -0.34907895, 0.644498, -0.19321083, -0.5395497, 0.38832143, -0.5208246, 0.06430776, -0.2791777, -0.6439393, -0.3363536, 0.33666334, -0.7003956, 0.107438676, -1.3904301], [-1.1712059, 1.0617536, -0.3013977, -0.4219037, -0.1700093, 0.11825568, 0.6384928, -0.37595394, 0.6102605, -0.39988753, -0.061959, -0.45108306, 0.8017932, -0.7932516, 0.18240789, -0.890087], [-1.142457, 1.2332771, -0.20821647, 0.27826637, -0.040927593, -0.25846782, 0.4688523, -0.67475283, 0.008471602, -0.32028186, -0.007418736, -0.33019733, 0.67465895, -0.8785243, -0.10604599, -1.1115488], [-1.0421145, 1.2696326, -0.048917428, -0.33125666, 0.22415514, -0.30245975, 0.3416279, -0.5224406, 0.41609704, -0.16665868, -0.57369, -0.095587514, 0.6977562, -0.51080304, 0.034762464, -1.32936], [-1.0411066, 1.1910424, -0.10280826, -0.6737837, -0.21602738, -0.35336784, 0.3505301, -0.3714756, -0.17564896, -0.3350296, -0.5107345, -0.36979434, 0.7662393, -0.2723896, 0.22394146, -0.831028], [-0.50711393, 1.3913803, -0.35018638, 0.14603616, -0.69090605, -0.04677976, 0.39898625, -0.18421932, 0.3408481, -0.59391975, -0.4763924, 0.03773974, 1.154641, -0.51781565, 0.19520885, -1.1537641], [-0.20446506, 1.483335, -0.46113095, 0.16111541, -0.048261825, 0.38789248, 0.40138277, -0.4877735, -0.321762, 0.093952596, -0.7110377, -0.28539094, 0.6257328, -0.43959492, 0.73099244, -0.86332273], [-0.004793871, 1.785823, -0.31930086, -0.2927062, 0.048298113, -0.05779279, 0.5907033, -0.26211733, -0.09207642, -0.023914173, -0.08901186, -0.3835313, 0.57437426, -0.5299838, 0.63478285, -1.2250577], [0.43558332, 2.1707518, 0.15240797, 0.0994802, -0.27953207, 0.40964195, 0.5076148, 0.440291, 0.24333389, -0.3554773, -0.41447243, -0.2862282, 0.43044665, -0.57649606, 0.45955306, -0.5755964], [0.07168797, 1.810833, -0.2116606, 0.045759887, -0.2728605, -0.16452605, -0.04090001, -0.11163712, -0.25012904, -0.32899785, -0.53770083, -0.15223436, 0.9998223, -0.20769441, 0.6826672, -1.3141518], [-1.008431, 0.2535571, -0.27038863, 0.9581017, -1.2754922, -0.4823384, -0.49173817, -0.18534839, 0.018541176, -0.15092908, -0.35375234, -1.1333468, -0.8754366, 0.2930664, -0.027056603, -0.12904124], [0.15962005, 1.434828, 0.53988034, 0.10638328, -0.32469, -0.32350954, 0.051014725, -0.09245192, 0.94997704, -0.6898017, -0.6149278, -0.15439498, 0.8864219, -0.15624546, 0.17789203, -0.93446004], [0.5391718, 1.5236214, 0.60613036, 0.5924439, -0.7245203, -0.18005326, -0.14084646, 0.01666592, 0.39899766, 0.5127959, -1.0942872, -0.49144438, 0.807243, 0.21189487, -0.020728286, -0.5982358], [0.22501609, 1.3917776, 0.84076464, 0.45884746, -0.39701983, -0.10481756, 0.1750798, 0.4033163, 0.5815756, -0.097310275, -0.76468736, -0.6062482, 0.48270035, 0.57640034, -0.20283863, -0.70301086], [0.31495562, 2.2147956, 0.73675627, 0.4337175, -0.3541855, -0.42292127, 0.14205833, 0.010745165, 0.52692014, 0.38820767, -0.28409842, -0.2745818, 0.21958397, 0.23893581, 0.22122203, -0.56309855], [-0.23509729, 2.0796165, 1.155583, 0.34903136, 0.44713804, -0.32159528, 0.007681869, -0.011516948, 0.045131244, 0.0679711, -0.42014822, -0.02496544, 0.9698256, 0.44660226, 0.22792633, -0.21535659], [0.10046562, 1.7308482, 0.8016853, 0.008522372, 0.37540767, -0.22610635, 0.29539675, 0.17149456, 0.64145386, 0.33264464, -0.80408007, -0.39670625, 0.109884284, 0.47675887, 0.14678395, -0.77276367], [0.14050579, 2.0794413, 0.64861315, 0.005769072, 0.397798, -0.094696455, 0.75895125, -0.45612404, 0.5441361, 0.46862406, -0.69880724, 0.13651532, -0.55947685, -0.29401425, 0.37454575, -0.52161145], [0.00811222, 2.0122488, 0.4501386, -0.5564419, 0.2966371, -0.27720582, 0.6776155, -0.36375058, 0.6522934, 0.040689018, -0.36135116, 0.26674926, 0.1946099, -0.32642776, 0.3602795, -0.98401767], [0.25530654, 1.9580132, 0.1940617, -0.48205453, 0.019368708, 0.14981014, -0.25929743, -0.14591512, 0.26062232, -0.079717405, -0.36964375, 0.60930806, -0.10364826, -0.1542961, 0.90398616, -0.77730036], [-0.020734515, 2.2536776, 0.30279392, 0.044929635, 0.2207876, 0.0889396, -0.07417667, -0.43805778, -0.49277446, 0.45060575, -0.5281388, 0.42148483, -0.4937191, -0.478431, 0.86399204, -0.5734582], [-0.7048138, 0.5812753, -0.45970273, 1.0725889, -0.78738844, -0.19124007, 0.46147949, -0.575113, -0.16694088, -0.108145736, -0.2525973, -1.3229097, -0.81474763, 0.5580353, -0.56943536, -0.18949603], [0.6716256, 1.6573446, 0.24145937, -0.3799816, 0.053565208, 0.16667402, -0.22061343, -0.57258826, -0.44111928, 0.63345844, -0.7128641, -0.110699564, -0.43478736, -0.5462615, 1.0687054, -0.81191635], [0.53196126, 1.485717, 0.9618528, -0.548054, -0.1723854, 0.14654493, -0.12116355, -0.5135195, 0.0870004, 0.8528038, -0.911675, 0.18824784, -0.16618158, 0.10902766, 0.66368407, -0.6147346], [0.38469863, 1.6039457, 1.0193164, -0.33979762, 0.16821101, -0.030573899, -0.14742516, -0.31399637, -0.2699794, 0.9122531, -0.8461198, 0.21386562, 0.012797535, -0.34191814, 0.6010655, -0.41905707], [0.63226396, 1.3106017, 0.4624249, -0.51509637, -0.12615529, -0.38404194, -0.16542809, 0.13501489, -0.16616236, 1.046988, -0.77795845, 0.56114733, 0.01033968, -0.9526312, -0.17262532, -0.053416517], [0.64579, 1.4385387, 0.3082547, -0.6606246, -0.41394344, -0.3059277, -0.13922657, 0.07561913, 0.2251727, 0.3606232, -0.83910507, 0.7082181, -0.49498641, -1.1091064, 0.13372092, 0.031681873], [0.4082937, 1.4234194, 0.4360448, -0.21136388, 0.2422556, 0.25158927, -0.009524133, -0.09582581, 0.25694758, 0.81393224, -0.5199133, 0.21394756, -0.7641747, -1.5192516, 0.13236098, -0.41494045], [-0.21174085, 1.4600112, -0.01418078, -0.583899, 0.2717397, 0.006220064, -0.045948472, -0.21097928, 0.30805597, 0.4545997, -0.37442148, 0.254909, -0.59023684, -1.2865279, 0.7246419, -0.46626958], [-0.46266407, 1.2339718, -0.106654435, -0.82749546, 0.42352498, 0.054541625, -0.3910976, -0.41685477, 0.22759046, 0.57781297, -0.62664276, 0.14422308, -0.5279761, -1.318237, 0.9684093, -0.228307], [0.54452115, 1.3241864, 0.37312347, -0.68213075, 0.109678805, 0.31499845, -0.19711797, -0.7977536, 0.4763112, 0.15991156, -0.8166917, 0.4155571, -0.4860149, -1.047037, -0.08588013, -0.37282473], [-0.21343485, 0.90004814, -0.0694524, -0.2432067, 0.9382025, 0.08754536, -0.36966997, -0.7830358, -0.122248255, 0.5042577, -0.57182854, 0.31127176, -0.6925024, -1.466675, 0.1853133, -0.117214724], [-0.4189932, 0.86184424, -0.89666283, 0.7773015, -0.6697954, -0.23541284, -0.09950305, 0.056091294, 0.06886158, 0.17383762, 0.20840307, -1.5862046, -0.3889216, 0.32086027, -0.36048767, 0.45057184], [-0.0008620432, 1.2038276, -0.40359157, 1.079431, 0.4937248, 0.15056738, -0.47760296, -0.4377801, 0.21380946, 0.8049832, -0.35935554, -0.18002732, -0.15552899, -1.5229352, -0.13578704, -0.27964228], [0.112196326, 1.0544772, -0.13112387, -0.69466174, 0.36810294, -0.13549668, -0.056063447, -0.8427145, -0.023053922, -0.11604291, 0.07758376, -0.023990972, -0.4310567, -1.6177613, -0.059918728, 0.19691531], [0.18125306, 0.94780064, -0.27541202, -0.30259103, -0.249449, -0.07086164, 0.25830904, -0.7829742, 0.107101366, -0.43647674, 0.4662396, 0.0779456, -0.30172685, -1.7381452, -0.0994267, 0.49580535], [0.4655335, 1.3979731, -0.34806484, -0.38409477, 0.2903584, -0.262733, 0.30022007, -0.30141374, -0.3544871, -0.30060482, -0.14436391, 0.07962859, -0.38028148, -1.7190202, -0.21329239, -0.28284582], [0.56351256, 1.3490599, -0.059419222, -0.6070787, -0.28398666, -0.16290434, -0.26515183, 0.5624079, 0.4240423, -0.3293617, 0.012376911, 0.18027815, -0.011732303, -1.6457458, -0.16459577, 0.43756184], [0.82410824, 1.5863221, 0.57125586, -0.7142258, 0.059045717, 0.40685225, -0.03330061, -0.031095214, 0.5149704, 0.4674189, -0.2043618, 0.2279343, -0.047804136, -1.3166298, -0.26747, 0.14024201], [0.98047763, 1.7535663, 0.9702552, -0.33257878, 0.14483632, 0.19738977, 0.384811, -0.46140492, -0.43276262, 0.47622326, -0.15724312, 0.1457122, 0.83108604, -1.2581421, -0.13044988, 0.07010847], [0.7710408, 1.374788, 0.52641135, -0.5278912, -0.051188774, 0.05661253, 0.08930074, 0.19214945, -0.021447716, 0.17351511, 0.5273395, -0.07626328, 0.86193913, -1.3736317, -0.08925751, -0.15973224], [0.43630663, 1.2757027, 1.0970961, -0.08206271, 0.28481933, -0.28252393, 0.54440707, 0.112814285, -0.26439562, 0.20189935, 0.23620884, 0.29412213, 0.92023927, -1.2682528, 0.19159915, 0.075766034], [0.74260026, 1.2811353, 0.8196275, -0.1176137, -0.054357354, -0.4361212, 0.58688134, -0.06591509, 0.032192647, 0.60904205, -0.072965935, 0.48831475, 0.46418336, -1.5060667, 0.052311838, -0.12337463], [-0.46561316, 0.47266245, -0.8770837, 0.986098, -0.6331591, -0.3699524, 0.3264195, -0.014315025, 0.5459327, -0.11654152, 0.7287752, -1.31472, -0.4261033, 0.37010098, -0.7457715, 0.29764146], [0.9408897, 0.5892298, 1.2077132, 0.26862612, -0.07098753, -0.90185314, 0.2873162, 0.046664868, -0.44471055, 0.7021417, -0.24940906, 0.25328928, -0.26442868, -1.3528614, -0.50772625, -0.025106758], [-0.26869845, 0.7274659, 1.399711, 0.7988215, 0.7349466, -0.71398425, 0.18247126, 0.11975851, 0.21320444, 0.2779859, -0.12147628, 0.06462048, -0.021915317, -1.75846, -0.48380965, 0.038315378], [0.18986325, 0.8460392, 1.124395, 0.2474118, 0.57176965, -0.529017, 0.04039044, 0.3205507, -0.2879323, 0.057413545, -0.10129395, -0.11850615, 0.9247389, -1.894057, -0.34875348, 0.2263375], [-0.425174, 1.1844463, 1.1177777, -0.089271426, 0.32444263, -0.30948278, 0.20935264, 0.29917008, 0.1459247, 0.56966186, 0.36118442, 0.31283155, 0.61433995, -1.4589416, -0.3937158, -0.027245846], [-0.13085835, 0.7104369, 0.97292805, 0.46594927, 0.9599755, -0.75727606, -0.2708592, 0.37118286, 0.210428, 0.1351676, 0.18442231, -0.33342114, 0.8352387, -1.9374859, -0.06285228, 0.0040838122], [0.3257271, 1.0720568, 0.67853534, 0.14081024, 0.529107, -0.4670775, 0.36914954, 0.38279593, -0.05634444, -0.07862743, 0.24120249, -0.004783482, 0.8890262, -1.5883957, -0.23048192, 0.20430817], [-0.10171538, 0.72748375, 0.74867785, 0.1725969, 0.20278451, -0.96674067, 0.18020986, 0.7406458, 0.5045016, -0.0072222413, 0.6459846, -0.35701936, -0.09257981, -1.7888728, -0.4535921, 0.26874632], [-0.09935937, 1.0368075, 0.7272381, 0.130336, -0.03801075, -0.10036571, 0.03927678, 1.1402786, 0.37997347, 0.17454596, 0.5612307, -0.5195026, 0.28513724, -1.5246743, -0.21937568, 0.9784824], [0.07461363, 0.6676838, 0.69005024, 0.59095925, 0.5229949, -0.7317716, 0.066980414, 0.3692315, -0.15868124, 0.1162237, 0.53837466, -0.27200103, -0.0040406194, -1.6929802, -0.28335434, 0.31097737], [-0.13534637, 0.7184897, 0.21646656, 0.13749301, 0.5860507, -0.68447536, 0.39691114, 1.0681171, -0.45928663, -0.008566254, 0.6220646, 0.47488204, 0.29918405, -1.5467635, -0.5541843, 0.07275159], [-0.61318374, 0.7371011, -0.51358, 1.2512342, -0.9011911, -0.6442316, 0.73915654, 0.23511538, 0.46030843, -0.2322244, 0.5474325, -0.9800722, -0.20204858, 0.23982942, -0.81830496, 0.40290323], [-0.2217197, 0.5951017, 0.7787939, 0.53091645, 0.8347762, -1.2523512, -0.25173238, 0.9682323, -0.5747748, 0.11095571, 0.33768156, -0.09434906, 0.54551536, -1.2641741, 0.261301, 0.19538744], [0.21418206, 0.87999606, 0.06781053, 0.7970174, 0.5554488, -1.0151025, -0.2717321, 0.95219517, 0.18488434, 0.44566283, 0.7273469, -0.038266987, 0.4052964, -1.3835205, -0.14313367, 0.49249533], [-0.039678194, 0.5263609, 0.42878288, 0.7376834, 0.031364243, -0.8722191, 0.43356314, 0.81680757, -0.6078581, 0.3453129, 0.33648992, -0.25885093, 0.20048857, -1.268448, -0.69630504, 0.666284], [0.13085446, 0.67981833, 0.8711138, 0.10124665, -0.42133355, -0.9416459, 0.50285655, 0.5621025, -0.8269218, 0.41919625, 0.47917753, -0.15846099, 0.21906309, -1.6229821, -0.6713651, 0.21734384], [0.0020327573, 1.3071966, 0.59236294, 0.68554133, -0.29525658, -0.25468957, 0.34874353, 0.8286304, -0.9146445, 0.43233258, 0.7307669, -0.1404921, 0.00036167284, -0.5922221, -0.6932828, 0.77141017], [0.32970107, 1.1452552, 0.9284532, 0.63059306, 0.11664121, -0.3426089, 0.38724333, 1.3163766, -0.4804742, 0.49016693, 0.28712463, 0.2541842, 0.31728882, -0.5462496, -0.48019847, 0.8099389], [-0.059663497, 0.9190794, 0.8446136, 0.86529005, 0.096939154, -0.28880554, 0.35794497, 1.1046456, -0.4985857, 0.5927909, 0.17621344, 0.15699965, 0.28571635, -0.50432354, -0.6806772, 0.62561935], [-0.26982716, 0.66482115, -0.1387382, 0.074977696, 0.37822312, 0.006858097, 0.49257132, 1.4275794, -0.55112886, 0.66048026, -0.224973, 0.2374195, 0.6086516, -1.1308856, -0.43841732, 0.72561], [-0.09171602, 1.2043468, 0.3989943, 0.76225597, 0.59893537, 0.3872567, 0.15996258, 1.1185902, 0.13883683, 0.49912763, 0.17386502, -0.33436817, 0.53892, -1.3706572, -0.38722685, 0.8333446], [-0.103157386, 0.8059973, -0.23152083, 0.80411047, 0.54333764, -0.16978839, 0.26892364, 1.1704651, 0.061105072, 0.61510336, 0.22532801, -0.19788526, 1.0643673, -0.9533653, -0.46724942, 0.32634056], [-0.40103635, 0.85560995, -1.1895281, 1.2569947, -0.31616756, -0.74454105, 0.078795835, 0.49345574, 0.6873249, -0.3846499, 0.6823289, -0.73879206, 0.0040546493, -0.18562657, -0.56064314, 0.010814437], [-0.32957795, 0.6404746, -0.20938204, 0.66987216, 0.42758095, -0.09460734, 0.25110623, 1.4761981, 0.023424452, 0.6587054, 0.24942884, -0.2963786, 0.92501605, -0.9023616, -0.35810062, 0.011246586], [-0.1871805, 0.49277884, -0.44932163, 0.5431861, 0.42060855, 0.14117026, 0.7776515, 1.680351, -0.9628344, 0.7970138, 0.24987596, -0.69865006, 0.7338104, -0.19325566, -0.4055104, 0.13927951], [0.25180668, 0.7243125, 0.94716054, 0.81428784, -0.12187607, 0.40482098, 0.026626114, 1.8915055, 0.029880075, 0.72354174, 0.40130135, 0.318827, 0.9235531, -0.14900702, -0.14562455, 0.6998709], [-0.2493338, 0.64800406, 0.21016559, 1.1095604, 0.20527203, 0.15567827, 0.37401128, 1.7154049, -0.6934809, 0.68076336, -0.03968399, -0.46430346, 0.91347563, 0.078242876, 0.11303436, 0.41889876], [-0.14526768, 0.34807655, -0.1390899, 0.9750729, 0.4388478, -0.1751189, 0.09104063, 1.4179001, 0.044489395, 0.43302527, 0.2412783, -0.4006894, 1.0036365, 0.041266795, 0.24955602, 0.6057485], [-0.2841703, 0.59142935, -0.06888683, 0.8120642, 0.1704773, 0.28528363, 0.26451042, 0.9393301, -0.2253314, 0.08214494, 0.122159064, -0.436018, 0.91026634, 1.096476, 0.51147074, 0.8211466], [0.009073347, 0.9724409, 0.5235049, 1.0311772, 0.42324677, 0.1444464, -0.010963976, 0.95145017, -0.09401459, 0.25443932, 0.06861635, -0.53147, 0.9336061, 0.91954225, -0.3648725, 0.63207686], [0.27564275, 0.8334275, 0.23578657, 0.6631488, 0.0034578037, 1.0565953, 0.35004565, 0.6894776, -0.1773534, 0.6600713, -0.13635696, -0.4784151, 0.9669431, 1.3862815, -0.80101156, -0.0906136], [0.4067775, 1.0635953, 1.0406775, 0.52055764, 0.51851153, 0.40982544, -0.32791463, 0.6909783, 0.033700727, 0.13161825, -0.15300007, -0.53238016, 1.1997577, 0.95651287, -0.038993474, 0.27116615], [-0.17544006, 0.9171679, 0.6625892, 1.1040946, 0.2961956, 0.12766021, 0.15336029, 0.8764991, 0.34011915, 0.32290018, 0.14085443, -0.4270571, 0.2701442, 1.4786471, -0.3190703, 0.29559103], [-0.35048154, 1.190054, -0.5449173, 0.9206633, -1.0481598, -0.87533575, 0.5357954, 0.32059482, 0.060059566, -0.2539232, 0.33820987, -0.5190084, -0.5170021, 0.30053473, -0.6440488, 0.23270133], [-0.26715395, 0.74393696, 0.6308232, 1.110025, 0.19973281, -0.48274127, 0.0020212901, 1.1268181, 0.42047086, 0.34919015, -0.33381823, -0.44451997, 0.17708671, 1.4243057, 0.009175448, 0.028829815], [0.020411234, 0.543501, 0.87551886, 0.71273977, -0.1075203, -0.72788626, -0.16093001, 0.79995286, 0.3552191, 0.19929089, 0.111244604, -0.28845614, 0.6386985, 1.5418279, 0.0037005723, -0.0030380557], [-0.19143957, 0.6181779, 0.60148704, 1.0943526, -0.26752207, -0.35996175, 0.11255836, 0.3977615, -0.48903984, 0.6484744, -0.361976, -0.40626803, 0.040057328, 1.4932084, 0.65466493, 0.548772], [-0.14855045, 0.5322007, 0.6922665, 0.9282715, -0.113973156, -0.5131827, 0.08587216, 0.8381134, -0.015885327, 0.4638082, -0.3479807, 0.06006302, 0.21137749, 1.9391491, 0.071460746, 0.08797076], [-0.28862083, 0.29601815, 0.87304485, 0.88289684, -0.34488118, -0.3282619, -0.0060940306, 0.47284845, -0.13682868, 0.45178097, -0.22452147, -0.20858142, -0.06958394, 1.8477194, 0.79943484, -0.3397182], [0.16060072, 0.22847278, 0.49915, -0.013256207, -1.346786, -0.02770297, -0.19833593, 0.4305451, 0.5426539, -0.104737334, -1.3118595, 0.01708412, 0.5339888, 1.9744601, 0.4703476, -0.3921317], [0.3721642, -0.26575503, 0.22947519, 0.30934787, -0.7882032, 0.20630822, -0.66853684, 0.28311357, 0.41521987, -0.1665651, -1.378572, -0.24258162, 0.7851175, 1.4254394, 0.51413697, -0.3735684], [0.4756624, 0.04799393, 0.7042018, 0.3497099, -0.30275136, 0.2436458, -0.481581, 0.28742725, 0.41160312, -0.17201507, -1.356024, -0.34821072, 1.0704483, 1.0435841, 0.16422519, -0.60000587], [0.47109044, -0.10389628, 0.77942747, 0.33683252, 0.66247725, 0.2555965, -0.44392845, 0.54672515, 0.53074926, -0.3834866, -1.2144821, -0.4018497, 0.846572, 0.81466115, 0.22692242, -0.09523426], [0.35355073, -0.049075104, 0.8275751, 0.79055274, 0.8207503, 0.4902162, -0.47887257, 1.0274783, 0.7653309, -0.24659275, -1.0498202, -0.19609137, 1.2210501, -0.29212412, -0.08415132, 0.05051952], [-0.25175145, 0.5779801, -0.5523768, 1.0931759, -0.89204323, -0.9137003, 1.1010771, 0.15083182, 0.20401284, -0.6025569, -0.3990065, -0.7538105, -0.62705666, 0.06637979, -0.5577479, -0.05463571], [0.38684577, 0.44285175, 0.73845077, 0.81944567, 0.9668388, 0.48506036, -0.39076596, 0.84595567, 0.8591844, -0.16850168, -0.42740875, -0.3007562, 1.1337104, -0.42203507, -0.455641, 0.42534193], [0.30646318, -0.13106798, 0.22498123, 1.0213268, 0.79153067, 0.6488106, -0.6515828, 0.84043425, 0.81110007, -0.1551159, -1.1585568, -0.3189884, 1.0369363, -0.2371655, 0.035407215, 0.29796144], [0.39963654, 0.2310859, 0.62380815, 0.9307879, 0.115005374, 1.016441, -0.169301, 0.7195877, -0.008264527, 0.059661645, -0.6297092, -0.3532202, 1.0054781, -0.36438638, 0.60388446, 0.9608571], [-0.11152241, 0.57429975, 0.5870719, 0.66390437, -0.12927152, 0.8728239, -0.4995376, 0.8881233, 0.5640897, 0.03228941, -0.39340198, -0.5320848, 0.9939055, -1.043628, -0.17908977, 0.7523971], [0.5003959, 0.58080566, 0.1237527, 0.50180054, 0.49603117, 0.8265674, -0.26490515, 1.0400751, 0.49372664, -0.15016425, -0.46365896, -0.8710059, 0.5358425, -0.7099338, 0.11026715, 1.0294997], [0.5380335, 0.74462616, 0.19140173, 0.67853075, 0.55483186, 0.77394277, -0.90641516, 0.9148833, 0.27973527, -0.15881407, -0.2631529, -0.67341214, 0.19170041, 0.12479596, 0.4169845, 0.8601306], [0.56851, 0.6777592, 0.4621521, 0.76727736, 0.21252362, 1.3054112, 0.11795049, 0.8320765, -0.16663116, -0.19044141, -0.33614242, -0.6892804, 0.6814572, -0.08227967, 0.0129183605, 0.81630826], [0.4502073, 0.63136715, 0.48264632, 0.78491205, 0.19478828, 0.8515766, -0.54911256, 0.75583804, 0.36637893, 0.40808734, -0.31358695, -0.9980012, 0.11566238, -0.2804024, -0.52268803, 0.19285795], [0.45816806, 0.14475884, 0.25443453, 0.7212263, 0.3840053, 1.3328863, -0.5628568, 1.2011483, 0.39987913, 0.055547882, 0.51419294, -0.9291682, 0.3628953, 0.23500341, -0.5802287, 0.48357597], [0.87404877, 0.09380919, -0.05391305, 0.16745846, 0.59335387, 0.2697657, -0.44334072, 1.1590852, 1.149832, -0.18605086, 0.5409081, -0.93322265, 0.35870713, -0.47878283, -0.8108931, 0.32364628], [-0.38245833, 0.5139812, -0.5609256, 1.099863, -0.86957926, -0.6851058, 1.0946738, 0.07214837, 0.5333568, -0.46791607, -0.16192862, -0.6375497, -0.520278, 0.19178131, -0.5118015, -0.06854865], [1.0164764, 0.3254255, 0.39106852, 0.14694111, 0.5488365, 0.7173414, -0.5274146, 0.7298832, 1.0234107, -0.17489815, 0.15638869, -0.7675116, 0.6128717, 0.2548013, -0.30898488, 0.36356393], [0.39524487, 0.15355214, 0.29613346, 0.37579948, 0.59689146, 0.6690631, -0.793721, 0.92736006, 0.30296254, 0.120247334, 0.2391601, -1.0801458, 1.0160092, 0.8299151, 0.1925198, 0.6458766], [0.29662555, 0.9831394, 0.2557141, 0.1536486, 0.69586617, 0.611773, -0.3652751, 0.8018702, 0.6763605, 0.4280592, -0.21883544, -0.5177739, 1.0432724, 0.5474629, 0.08189417, 0.6924961], [1.0896039, 0.6390293, 0.51696515, -0.14588234, 0.62112474, 0.29823402, -0.38993427, 0.6215139, 0.5060237, -0.24731712, 0.5305174, -0.6945637, 1.1767591, 0.61505234, -0.042015996, -0.5066048], [0.5590033, 0.4320137, 0.221051, 0.04904269, 0.1388363, 0.35480085, -0.52704775, 0.8194673, 0.6291701, 0.1129694, 0.18355525, -1.0161341, 0.81938714, 0.700616, -0.95415837, -0.07960445], [0.41173947, 0.26289853, 0.09803074, 0.3107465, -0.5697122, 0.5108571, -1.0589694, 0.9357937, 0.8282743, -0.2166106, 0.109138586, -0.88499206, 0.7345594, 0.26354486, -0.6578071, -0.34656012], [0.301754, 0.66686296, 0.3474924, 0.3028218, -0.05494775, 0.52591324, -1.2613788, 1.7384996, 0.16274317, -0.10428555, 0.60871273, -1.0279366, 0.9526383, 0.35711768, -0.3192414, -0.2973431], [0.20157088, 0.12669343, 0.31099623, 0.36358166, -0.021605095, 0.48933178, -0.80124533, 1.3793856, 0.6732095, 0.024245871, 0.804817, -1.1310338, 0.5312572, 0.64845717, 0.022351263, -0.26406106], [0.39649975, 1.4774017, 0.37804705, 0.06956704, 0.0055582626, 0.6455925, -0.606147, 0.9799489, 0.42083707, 0.006043636, 1.0569285, -0.032778855, 0.46194226, 0.69141906, 0.15356527, -0.20011], [0.70348966, 1.244575, 0.30383584, -0.25370732, 0.059097305, 0.9857036, -0.8365107, 0.7035485, 0.14271447, 0.10476422, 0.35764953, 0.34622344, 0.5028774, 0.8119485, -0.10583361, -0.4996503], [0.14263242, -1.374249, 0.31460693, 0.00021914014, -0.41568336, 0.79986924, -0.80148643, -0.15950274, -0.69419205, 0.9116666, 0.35860902, -0.5610789, -0.30394164, 0.4715222, 0.7454588, 0.4025351], [0.7283064, -0.15349004, 0.43167353, 0.86071634, -0.58890295, -0.78078, 0.88615036, 0.4677466, -0.046034686, -0.57066923, -0.7098362, -0.9710488, -0.82859546, 0.26837394, -0.36679506, -0.17674036], [1.0207453, 1.1307836, 0.7358124, 0.12710083, 0.4212089, 0.91730636, -0.52386516, 0.6800053, 0.1818759, 0.3784792, -0.67941487, -0.64503527, 0.48126402, 0.7062275, -0.035179835, 0.080783464], [0.864032, 1.0473553, 0.8188257, -0.48871642, 0.029597916, 0.6481086, -0.7352604, 0.6302133, 0.016223501, 0.26830962, -0.12927818, 0.34649312, 0.6005197, 0.64872533, 0.11060648, -0.86703146], [0.612369, 0.53075004, 0.34094167, 0.035956863, 0.048754204, 0.23407288, -0.98880035, 0.61072844, 0.08721264, -0.31492445, 0.27578327, -1.0489738, 0.5213326, 1.0782156, 0.17659238, -1.04092], [0.70807153, 0.82792056, 0.6254202, -0.8129184, 0.20274165, 0.372073, -0.34573364, 0.75235176, 0.12704128, -0.4427336, -0.24388327, -0.09803108, 0.9557383, 1.056092, 0.30689034, -0.9716629], [0.65791065, 0.93113893, 0.11528143, -0.805013, -0.42573252, 0.09354989, -0.573634, 1.0592165, 0.4870671, -0.48979658, 0.07636732, 0.05556212, 1.2682761, 0.51584375, -0.04609711, -0.5658141], [1.1006453, 0.8216911, 0.042450767, -0.5286233, -0.4413513, 0.39864126, -0.11781627, 1.0492073, 0.16924794, -0.13528858, 0.25520512, -0.23698345, 1.2839962, -0.521998, -0.047351636, -0.81838953], [1.2119393, 0.35699, 0.12612139, -0.74254364, 0.042938698, 0.5079554, -0.90915036, 1.4726161, 0.10428889, 0.018395932, -0.06886902, 0.045065552, 0.6996017, 1.1391236, -0.08880151, 0.10929478], [0.5517857, 1.0904101, 0.49637344, -0.7232678, -0.10657245, 0.20955594, -0.35018533, 1.893566, -0.16614798, -0.2788299, 0.31562388, -0.31444198, 0.58380705, 0.9510576, -0.17071973, -0.09806014], [0.7478923, 0.8746578, 0.8409749, -1.0642022, -0.28643495, 0.29516473, -0.21716264, 1.0339044, 0.07044534, -0.22383635, -0.15840955, -0.14906342, 0.6342631, 1.2134762, -0.07369295, 0.282521], [1.0341151, 0.6765138, -0.10767878, -1.0000358, -0.31262997, 0.40147832, -0.5411946, 1.5600113, 0.40520632, -0.2534337, 0.29660407, -0.5358137, 0.6853765, 0.7899363, -0.12698571, 0.13972585], [0.4129147, 0.01603533, -0.26953563, 0.46405596, -0.62679416, -0.4352581, 1.0863689, 0.22533238, -0.13734809, -0.9020556, -0.45645502, -1.3338244, -0.776156, 0.47452575, -0.453158, -0.43234605], [1.0197147, 0.3539947, -0.17810139, -0.62087333, -0.3870177, 0.09012636, -0.49254316, 1.2919809, 0.349404, -0.27385423, 0.013901455, -1.0223224, 0.7579504, 0.31048205, -0.63160163, -0.33061883], [0.7938084, 0.26316306, -0.12890972, -0.75945365, -0.59157693, 0.39511755, -0.63265145, 1.2141186, 0.06917006, -0.38335493, -0.40852076, -0.8226592, 0.4699928, -0.04824328, -0.6213375, -0.14724565], [0.93658483, 0.6144138, -0.25569198, -0.8737663, -0.43120718, 0.48604617, -0.6338139, 1.620235, 0.20328018, -0.370977, 0.37364328, -0.5230842, 0.4127324, -0.20531721, -0.024310837, 0.016284905], [0.9029474, -0.024130894, -0.27543974, -0.9637438, -0.4565106, 0.4285013, -0.5926822, 1.2758468, -0.4238067, -0.5895205, 0.32013422, -0.91918033, 0.48878232, -0.0082343565, 0.46057308, -0.18458089], [1.2857939, -0.16971199, -0.36140117, -0.60901135, -0.31376043, 0.4971598, -0.5142487, 1.5028783, 0.71451867, -0.49008742, -0.24552067, -0.9990071, 0.3505929, -0.0036183293, -0.09558698, -0.58751476], [0.99074066, 0.20315659, 0.122399956, -0.8990993, -0.56074107, 0.28561422, -0.958108, 1.3259193, -0.1393679, -0.7436376, 0.010021694, -0.6305979, 0.9339115, -0.24878886, 0.04877251, -0.16248482], [0.88923377, 0.19998632, -0.10727537, -0.62309587, -0.42500737, 0.38263252, -0.573302, 1.4792358, -0.37584236, -0.62847644, 0.06601704, 0.009463049, 0.6454909, -0.07156716, 0.115037285, -0.19824123], [1.4557236, 0.29522637, 0.7305507, -0.41352633, -0.57473737, 0.61047393, -0.90601027, 0.9701337, -0.19005479, -0.9420846, 0.03341754, 0.37306094, 0.089509, -0.46709886, 0.012182071, -0.3341582], [1.4233631, 0.10215844, 0.0017090151, -0.89199746, -0.23183303, 0.2773676, -0.8713993, 1.4498976, -0.014388006, -0.6074191, -0.32405058, -0.085904524, 0.17972423, -0.021613367, -0.35619506, 0.16030177], [1.104823, 0.62205774, 0.71280676, -0.38253567, -0.22702564, 0.4533041, -0.2998381, 1.4228144, 0.6733604, -0.05064996, -0.35620618, -0.37572488, 0.57860786, 0.57505053, -0.25892884, -0.64715207], [0.7250721, 0.03678575, -0.20716968, 0.4526739, -0.3299823, -0.42909738, 0.22189297, 0.48325014, 0.03252193, -0.57246894, -0.75331706, -1.3275962, -0.8849318, 0.57408804, -0.5940416, -0.23212577], [1.956055, 0.68393105, 0.28249484, -1.0209321, -0.1331577, 0.26502046, -0.33959767, 1.3189893, 0.54894394, -0.010414172, -0.17088802, 0.13340832, -0.12077971, 0.3075022, 0.101089425, -0.089275934], [2.1435468, 0.40956315, 0.19065495, -0.96386486, 0.012561309, 0.170272, -0.53479314, 1.5987208, -0.10527598, -0.016612038, -0.5171135, 0.14214294, -0.337402, 0.047042634, 0.042513378, -0.0899226], [1.6325451, 0.40706703, 0.26335847, -0.85105175, 0.16314922, 0.17077865, -0.43525028, 1.6592464, -0.22115585, -0.2648459, 0.05390277, 0.030921364, 0.02555691, 0.099835664, -0.85916317, 0.19800338], [0.8637899, 0.3403186, 0.07390549, -1.1688986, -0.48436093, 0.09249092, -0.2596606, 1.5568311, -0.12909928, -0.66758925, 0.3463277, 0.3858346, 0.08560224, 0.37516162, -0.42080188, 0.20653586], [1.3330468, 0.31265745, 0.14830247, -0.7812577, -0.29767784, -0.07105486, -0.024624746, 1.397602, -0.44927987, -0.29131278, 0.73344046, 0.27242988, 0.070232496, 0.30934247, -0.7100866, 0.3172743], [1.358113, 0.07830426, 0.28260985, -0.92142636, -0.014759252, -0.38455263, 0.26579142, 1.2838345, -0.76405966, -0.36330837, 1.2014074, -0.009067364, -0.39743453, 0.5468472, -0.08670393, -0.16136046], [1.2904938, 0.086771116, 0.047438286, -1.0037622, 0.14313191, -0.046317164, 0.034416534, 1.4874612, -0.64364356, 0.20454952, 0.80136937, 0.1472067, -0.5219869, 0.5203888, -0.3839734, 0.11108369], [1.2459025, -0.34209722, 0.13921681, -0.43672156, 0.33698854, -0.33667558, -0.7277313, 1.2939076, -0.35721672, 0.24891444, 1.0232083, 0.42854083, -0.4884737, 0.3103119, -0.06601493, 0.50932044], [0.95628506, -0.25987476, 0.31458566, -0.057708506, 0.44563752, -0.30239862, -0.76625264, 1.447029, -0.34739515, -0.71605337, 0.7051085, 0.3783311, -0.20771514, 0.48595402, 0.374976, 0.11005734], [1.347943, 0.77529806, 0.27190983, -0.4196126, -0.29146284, -0.7700965, 0.087937415, 0.9990351, -0.72781783, -0.29745445, 1.1468256, 0.17372435, -0.64732176, 0.34450528, -0.16322406, 0.11364333], [0.49241662, -0.027805058, -0.04137045, 0.56050134, -0.6786278, -0.3911748, 0.60243535, 0.08718926, -0.51501125, -0.62560916, -0.7720391, -1.1249601, -0.7924228, 0.22986674, -0.667872, -0.32516283], [1.1909989, 0.29248762, 0.009127633, -0.41472864, 0.14810312, -0.28940403, 0.29630825, 1.1206048, -0.5071294, -0.14077115, 1.087912, -0.10574978, -0.18552074, 0.8182134, 0.40304053, -0.0190852], [1.3511542, -0.0116441995, 0.34800988, -0.3099796, 0.35956308, -0.43858853, -0.14228845, 1.2901146, -0.6246117, -0.5501259, 0.73185974, 0.06780478, -0.15677406, 0.69897336, 0.20056619, 0.077113114], [0.6934081, 1.0187722, 0.5278758, -0.34629992, 0.3507555, -0.70596397, 0.24167535, 0.81152564, 0.14675143, -0.6070995, 1.3565351, -0.09082926, -0.85004866, 0.807875, 0.08142575, 0.26676634], [1.0103593, -0.062407203, 0.21364643, -0.09519031, -0.816418, -0.1555019, 0.24011737, 1.4154433, -0.44456282, -0.3470268, 1.0443, 0.18111594, -0.58324647, 0.80839455, 0.17525813, 0.14024124], [0.89728934, 0.15369916, 0.3010515, -0.43978333, -0.81486917, -0.7445081, 0.3995018, 1.3828036, 0.07821528, -0.5043179, 0.45018053, -0.029929599, -0.40547872, 0.80272985, 0.58759785, 0.61646396], [1.1088631, 0.47394845, 0.7295253, -0.021138148, -0.028520811, -0.88680464, 0.14861907, 1.2054636, 0.15034331, -0.5518119, 0.8136261, -0.37268516, -0.3295215, 0.6906801, -0.076544575, 0.5740577], [1.0046128, 0.8147098, 0.67474186, 0.09288895, -0.007830846, -1.0542531, -0.1597351, 1.3326285, -0.23229222, -0.7407396, 0.5051711, 0.13573231, -0.32506508, 0.6466062, -0.03895848, 0.3471532], [0.8437456, 0.13611184, 0.61420417, -0.112996176, 0.08216164, -1.1884817, -0.1392606, 0.8202236, 0.040960584, -0.8223549, 0.5224146, 0.18262754, -0.30111524, 0.6596081, -0.11919036, 0.8753057], [1.2415812, 0.28929257, 0.19494602, -0.38407183, 0.28641048, -0.74880725, -0.68408567, 1.1043075, -0.7272897, -0.4209487, 0.9356652, 0.10161146, 0.24091445, 0.47697031, 0.20881806, 0.85893476], [1.4516275, 0.44283316, 0.9354791, -0.330903, -0.018654823, -0.65273726, -0.7116629, 1.4297826, -0.4100658, -0.33767638, 0.24889538, 0.12244303, -0.26207098, 0.7903519, -0.1604082, 0.4613003], [0.20891479, 0.31779894, -0.63383937, 0.9961855, -1.1169143, -0.34247658, 0.4839084, -0.23040426, -0.47262368, -0.2708919, -0.73569983, -1.0213785, -0.44084817, 0.38731354, -0.48747927, 0.67576975], [0.7511705, 0.72634953, 0.5724442, -0.5043084, -0.26875293, -0.69006944, -0.50371516, 1.063944, -0.459551, -0.68508667, -0.21043985, 0.5068165, -0.53351724, 0.99855554, -0.38391343, 0.4442042], [0.9192927, 0.19475436, 0.79524773, -0.46731398, -0.27906376, -0.7498097, -0.037781853, 1.5861087, -0.49466228, -0.39770293, -0.03903456, 0.23870413, -0.39047733, 0.2776934, -0.26788092, 0.8201589], [0.65851754, 1.0406871, 0.64352757, -0.7269589, -0.3870744, -0.3605401, 0.2617328, 1.5284812, -0.4140262, -0.5751273, 0.31720057, 0.11062151, -0.66485256, 0.63658184, 0.09411378, 0.13998793], [0.7839594, 0.56173325, 1.0472348, -0.9107835, -0.48246512, 0.08954909, -0.21265095, 1.3868015, -0.32225594, -0.5311037, 0.3270183, 0.36386237, -0.47659948, 0.36473966, 0.2841362, 0.8180299], [1.1391153, 0.5536864, 0.9164852, -0.7355836, -0.2915939, 0.3265241, 0.00089046336, 0.83710843, -0.4915722, -0.19128317, -0.46374542, 0.0029099854, -0.4448375, 1.3643225, -0.16624747, 0.19769783], [1.423187, 0.97980183, 0.8667148, -0.7409157, -0.5727432, 0.2170096, -0.5594314, 0.36892653, -0.52626705, -0.32031488, 0.07164456, 0.60682887, -0.14278774, 0.60894746, -0.5348763, 0.58928], [1.4529961, 0.13077882, 0.9488357, -0.8086775, -0.56152874, -0.11025071, -0.80634, 0.7869115, -0.48490387, -0.89376336, -0.06877979, 0.5184676, -0.034625623, 0.47645757, -0.329726, 0.43444484], [0.8797884, -0.15131876, 0.992489, -0.90518945, -0.29257837, -0.23612161, -0.96896636, 0.8021851, -1.0151734, -0.4950092, 0.078888044, 0.44284642, 0.2406193, 0.27308792, -0.4927549, 0.67204726], [1.3095803, -0.2921212, 0.5911965, -0.77943504, -0.33077085, -0.20534737, -1.1181636, 0.36628264, -0.55622584, -0.17869161, -0.21327084, 0.37727535, 0.7011149, 0.5395632, -0.4564699, 1.0831287], [1.1290451, -0.25875896, 0.97727495, -0.85062605, -0.8201518, -0.35809058, -0.7684571, 0.0240455, -0.25484985, -0.69798934, -0.1366011, 0.43990257, 0.49246287, 0.6182225, -0.107236244, 0.61015147], [0.06417239, 0.4135597, -0.38092458, 1.2716099, -0.097324654, -0.51212066, 0.30986777, 0.031717245, 0.6857791, -0.064881675, -1.019553, -1.3466178, -0.49120066, 0.06658495, -0.6000706, 0.6498765], [0.82212865, 0.043936998, 1.3481374, -0.8960213, -0.27077118, -0.47394288, -0.7002805, -0.16217811, 0.016997928, -0.9686604, -0.35893694, 0.6832262, 0.088463105, 0.42059714, -0.5481715, 0.37559512], [0.96351224, -0.1646071, 0.7092117, -1.234142, -0.6070101, 0.13727824, -0.48222584, -0.5241952, 0.104251206, -0.5113266, 0.05668138, 0.4780416, 0.34728372, 0.22319604, -0.59063053, 0.9937451], [1.1755557, -0.07042852, 0.8717248, -1.0956906, -0.33748144, 0.1770618, -0.6802787, 0.029011866, -0.34038913, -0.4243612, 0.07019734, 0.61986643, 0.13691439, 0.102152504, -0.4484226, 1.1858928], [0.31319523, 0.3632648, 0.78425676, -1.1968697, -0.3444219, -0.052032236, -0.6560501, -0.72729915, -0.24817476, -0.2226261, -0.050936226, 0.65585226, -0.06456235, 0.1519233, 0.34620905, 0.8524917], [0.6903824, 0.6729051, 1.0266129, -1.517022, -0.581077, 0.07975731, -0.74605435, -0.33179447, -0.14451481, -0.5876934, -0.24309988, 0.22590666, -0.5110276, 0.061561767, -0.24272831, 0.7792553], [1.003995, 0.81264055, 1.028587, -1.5453329, -0.2685808, 0.40331483, -0.79819566, -0.08916318, -0.32994613, 0.3275051, 0.0061407974, 0.51048344, 0.015390543, 0.5464368, 0.06693288, 0.5532896], [0.96976787, 0.36991477, 0.85762, -1.4999484, -0.5398623, -0.5056348, 0.077298135, 0.21496454, -1.0944847, 0.26938868, -0.097478196, 0.23835589, -0.16219646, 0.42992747, -0.84700924, 0.43104303], [1.0192, 0.5992656, 0.6322168, -1.6571239, -0.76425743, -0.521637, -0.55124295, -0.47215486, 0.07277239, -0.15809916, -0.20569105, 0.19940771, -0.0031853877, 0.60773754, -0.32311782, 0.4568618], [1.0018293, 0.50886923, 0.970932, -1.2263108, -0.6736684, -0.26885644, -1.0990343, -0.20394261, 0.42474225, -0.2655801, -0.14299224, 0.5744734, -0.083285555, 0.7952479, -0.8020715, 0.17434369], [1.3656163, -0.029242316, 0.31095904, -1.2700716, 0.10084437, -0.106180914, -0.045545552, -0.7386503, -0.8205076, 0.22939095, -0.13151474, -0.20208268, 0.20207833, 1.1560748, -0.53146183, 0.3964365], [0.021021733, 0.17377074, -0.8740577, 0.82719755, -0.12912655, -0.13455744, 0.33708012, 0.36673778, -0.44798115, -0.5392371, -1.1778059, -1.0809399, -0.056424513, 0.16584119, -0.8271832, 0.9563542], [1.1119679, 0.28739855, 0.66541946, -1.101845, -0.09604899, -0.3993914, -0.75143605, -0.67292327, -0.0003384021, 0.23375085, -0.2666843, 0.54121596, 0.26253662, 0.9555116, -0.45056057, 0.7883744], [1.6091374, 0.2882716, 0.355145, -0.55571204, -0.4658731, -0.060532708, -0.760287, 0.3714468, -0.09432792, -0.24196899, -0.79342145, 0.03697106, 0.08058378, 1.6676756, -0.25376067, 0.20070294], [1.2452948, 0.6452453, 0.63482976, -0.38225535, -0.122419484, -0.16629887, -0.2967368, -0.2240288, -0.4435316, -0.040361926, -0.7125556, 0.48988703, -0.21162932, 1.1558323, -0.2859676, 0.82572913], [1.0728343, 0.4772527, 0.89756066, 0.071492806, 0.19726294, -0.78941715, 0.1727103, -0.05183661, -0.0236069, 0.61218524, -0.54618967, 0.16380367, -0.36225098, 1.672064, -0.34179696, 0.7272344], [0.8120896, 0.9026104, 0.6021346, -0.3899823, 0.2687192, 0.258568, -0.5588361, 0.089770086, -0.071146294, 0.20993973, -0.6233826, 0.24487124, 0.1774273, 1.6418319, -0.16039594, 0.73347944], [0.97334874, 0.6850486, 0.36771682, -0.36091584, 0.3677606, -0.1522208, -0.573875, 0.15649076, -0.42020997, -0.067244485, -0.8898406, 0.5758436, 0.073061116, 1.613334, -0.33024466, 0.95246637], [0.9063079, 0.6558372, 0.36336625, -0.42258012, 0.50977033, -0.4652984, -0.7052444, 0.08575679, -1.1120284, 0.2694229, -0.28866252, 0.43768963, -0.3041133, 1.5129384, -0.5797354, 0.69947636], [0.9727527, 0.48765934, 0.14552197, -0.71568495, -0.4410005, -0.37637183, -0.6802905, -0.08251028, -0.21674798, -0.32486528, -0.4460222, 0.2397868, -0.9126689, 1.2452312, -0.5642605, 0.77215517], [1.1086857, 0.3127599, 0.15287462, -0.117533974, 0.031662468, -0.17944467, -0.6067689, -0.0801202, 0.5567079, -0.03617622, -0.3232247, 0.047344316, -0.978111, 1.3322313, -0.23670799, 1.1307468], [1.1379149, 0.45628753, 0.36920947, -0.11350503, -0.18663251, -0.04233757, -0.6138179, -0.33394495, -0.20304231, 0.10451013, -0.7284506, 0.048439667, -0.7076204, 1.4085183, -0.42633507, 0.81223595], [0.42870086, 0.21278194, 0.24323826, 0.94708717, -0.7808384, -0.4622776, 0.7949447, 0.38097954, -0.47592372, -0.30060664, -1.2196211, -0.8581274, -0.44076636, 0.19166154, -0.6392718, 0.23331492], [0.28061053, 0.6606007, -0.06961289, -0.11907769, 0.16783358, 0.018908763, -0.6505262, -0.48539189, -0.31825522, -0.08535649, -0.7295484, 0.2027797, -0.38720742, 1.6857432, -0.112460144, 1.3898022], [0.75775397, 0.34009746, -0.05077286, -0.1784042, 0.12833166, 0.42056423, -0.6417023, -0.57750434, -0.30283087, -0.087549254, -0.6159563, 0.2779565, -0.4178193, 1.5318681, -0.43133417, 1.2210487], [1.2877003, 0.37372422, 0.45026693, -0.29369423, 0.18424405, 0.2877068, -0.29770127, -0.3872923, -0.1403221, 0.3057708, -0.82448804, -0.11750213, -0.6094998, 1.4450446, -0.16257899, 0.50303626], [0.7790906, 0.10456091, -0.15679225, -0.40212154, 0.081219874, 0.8124202, -0.28754887, -0.17149056, -0.24934241, 0.46411636, -0.7212518, 0.18960515, -0.3705607, 1.6579425, -0.3640423, 1.0405594], [1.3586072, -0.1429621, 0.5736413, -0.11153272, 0.5282855, 0.48017725, -0.03755168, -0.11565162, 0.43641946, 0.22158697, -0.25602177, -0.0326152, -0.54014087, 1.8491688, -0.5509609, 0.6717487], [1.2598113, -0.08804644, 0.46243283, 0.21323554, -0.20776065, 0.5551788, 0.1404819, -0.5441008, -0.11514066, 0.64028674, -0.17153059, 0.3695705, -0.69950885, 1.5760546, -0.37261316, 0.47901878], [1.873482, 0.5530189, 0.42637062, 0.004728598, -0.6009841, 0.38101155, 0.13015616, -0.706825, -0.11316381, -0.0018725414, 0.38617495, 0.01241734, -0.7427588, 1.1179873, -0.5113204, 0.22631547], [1.7074083, -0.1706252, -0.14225045, -0.18190262, 0.21989328, 0.44553295, 0.014521042, -0.99842006, 0.10827427, 0.038235527, 0.033865158, -0.18873468, -0.86222005, 1.1371818, -0.43047673, 0.40879837], [1.483524, 0.065232515, -0.044659387, 0.046377435, 0.5938255, 0.5476193, -0.09210933, -0.6132066, -0.44818586, -0.18288052, 0.1960062, -0.0049913176, -0.98894554, 1.6102281, -0.34399125, 0.22745137], [1.5290928, -0.03296807, 0.46014348, 0.12821053, 0.3385722, 0.7365833, -0.11358622, -0.98244953, 0.12801847, 0.33641765, 0.09439633, -0.18783419, -0.8408287, 1.0971972, -0.30868736, -0.022061188], [-0.089089654, 0.26615012, 0.051591072, 1.0986241, -0.61493087, 0.00365896, 0.7782714, -0.08914536, -0.33004692, -0.25837705, -1.3820434, -1.4663309, -0.15819536, -0.03817904, -0.055600926, 0.056159463], [1.187779, 0.35740766, 0.1604749, -0.26500747, 0.49490094, 0.856996, -0.13108175, -0.27896643, 0.12578669, 0.13188922, -0.799159, -0.147743, -0.3893143, 1.6292429, -0.5616405, -0.19838583], [0.73315936, 0.33782336, 0.33685356, 0.70546985, 0.07010174, 0.96773446, 0.14935063, -0.6282036, -0.4495792, 0.13993444, -0.30785915, 0.08768924, -0.69342846, 1.3859429, -0.6878867, 0.15409307], [1.4795191, -0.10847479, 0.40940735, -0.14740567, 0.31418172, 0.78951347, 0.07584503, -0.62720263, -0.29943755, -0.0061881044, -0.786463, -0.16132952, -0.33525997, 1.6875956, -0.47515705, 0.11445045], [1.6766673, 0.39154574, 0.7284304, 0.249691, 0.46074176, 0.7911188, -0.25148204, -0.048861805, -0.15388907, 0.25130573, -1.2371279, -0.35014653, -0.6792186, 1.1326638, -0.18578924, -0.24441013], [0.8085157, 0.6871332, -0.029351505, 0.396596, 0.30644742, 0.7394632, 0.5493763, -0.79126084, -0.47237638, -0.22310664, -1.320434, 0.22369482, -0.8409505, 0.9528279, -0.05101185, 0.07627984], [1.0653961, 0.04923421, -0.14214985, 0.71359324, 0.3330562, 0.6450006, 0.71240914, -0.48741066, -0.09305483, 0.47606486, -1.0035361, 0.12515631, -0.49076852, 1.2749668, -0.3334564, 0.23578487], [1.0969509, 0.7187752, 0.10576241, 0.86594975, 0.0724182, 0.5132583, 0.2626127, -0.65517575, -0.15539029, 0.7256777, -1.2300497, -0.26370978, -0.7255688, 0.9766151, 0.17324132, 0.42844316], [0.90884596, 0.43229485, -0.06726273, 0.7107051, 0.41027784, 0.5314216, 0.40675107, -0.4809026, 0.21967472, 0.84173244, -0.7441375, -0.42378014, -0.5214933, 1.1616107, 0.12090622, 0.11088793], [0.65191925, 0.5550182, 0.27413344, 0.83697194, 0.08407107, 0.7576135, 0.35238475, 0.007751902, -0.4908739, 0.61401576, -0.49298665, -0.34938204, -0.8383406, 1.356135, -0.87606114, 0.13250165], [0.6459726, 0.2239567, 0.13801956, -0.04557602, 0.12270904, 0.74864596, 0.0985508, -0.18469615, -0.51030463, 0.6829491, -0.5662491, -0.1621667, -0.9899505, 1.2399043, -0.92141443, 0.1176325], [0.31813917, 0.20353906, 0.040968295, 1.4205177, -0.72258675, 0.37915432, 0.05067181, -0.20292775, 0.04519725, -0.25113013, -1.2932991, -0.847121, -0.36821082, -0.25923327, -0.49361518, 0.10656418], [0.46924967, 0.29829398, 0.16508363, 0.08634013, 0.17285958, 0.8566263, -0.27193654, -0.48222497, -0.5333328, 1.2544951, -0.86058354, 0.35684475, -0.88424295, 1.128282, -1.0488638, 0.7677497], [0.35171992, 0.23617813, 0.30054313, 0.41709954, 0.0052453293, 0.97836286, 0.4276158, -0.4226757, -0.77475107, 1.0835047, -0.85135317, 0.26725355, -0.6735318, 0.9759866, -0.72970355, 0.3175209], [0.17502052, -0.23253168, -0.38208416, -0.31035843, 0.13338897, 1.4832557, 0.23025194, -0.4372871, 0.30154058, 1.1763781, -0.8140826, -0.037628062, -0.7701418, 0.47155234, -0.2801062, 0.33362806], [0.44626492, 0.15093379, 0.11077271, -0.72545284, 0.063258305, 1.5303582, 0.09886224, -0.45439863, -0.5544918, 0.61698925, -0.53360015, -0.15956444, -0.9860753, 1.006585, -0.36528924, -0.051782], [0.55747324, 0.3992856, -0.38490054, 0.10431054, 0.31515586, 1.4452641, 0.062370263, -0.011663978, 0.03138454, 0.77327824, -1.2285463, -0.4468425, -0.70517135, 1.1164503, -0.057750717, -0.25042626], [0.7127803, -0.02878035, -0.39241648, -0.52171195, 0.37291664, 1.7829664, -0.19430345, -0.48496723, -0.41874078, 0.43622416, -0.23193635, 0.05015379, -0.5004208, 1.2761452, -0.24956213, 0.3478538], [-0.10761791, -0.5042266, -0.050777633, -0.68521285, 0.43024772, 1.6814959, -1.1056949, -0.6882362, -0.07071799, 0.0044226567, -0.60506964, 0.016466329, -0.21553846, 0.705686, 0.13108192, 0.21499856], [0.32426006, -0.3081989, 0.14356932, -0.94253457, -0.06173328, 1.4130923, -0.6881922, 0.18921536, -0.48886177, 0.25818586, -1.1658565, -0.08553229, -0.43975958, 1.0234112, 0.25269437, 0.25354782], [-0.08681416, -0.12190449, 0.37498114, -0.65569973, -0.37611425, 1.785289, -0.6257932, -0.43401313, 0.02560415, 0.28177932, -0.9904362, 0.06376634, -0.0015554302, 1.0988457, -0.40622872, -0.00078707456], [0.21208455, 0.11547837, 0.39468125, -0.45485646, 0.09972687, 1.8097985, -0.35947075, -0.574095, -0.2620617, 0.31555104, -0.72766495, 0.49280748, -0.45533657, 1.1086053, -0.22698136, -0.17781362], [0.8606649, -1.4686146, 0.52472514, 0.29194137, -0.65059835, 0.8633204, -0.675086, -0.28186476, -0.33047736, 0.64606416, 0.29815707, -0.39888868, -0.43225893, 0.5707392, 0.44638684, 0.38057968], [0.05430311, 0.019106286, -0.006764314, 1.5941164, -1.1857266, 0.21116726, 0.337304, -0.23236667, -0.29169306, -0.40321603, -1.0137398, -0.82329845, -0.39756244, -0.17499156, -0.4489308, 0.27990073], [0.7405614, 0.25530693, 0.6283628, -1.2488383, -0.6117807, 1.3503929, -0.23638827, -0.13854113, -0.33661208, 0.61762077, -0.0734144, 0.15660971, 0.1713989, 1.2646055, 0.033454593, 0.49908245], [0.3820847, 0.31383026, 0.42078692, -1.5951725, -0.2612612, 1.6873951, -0.79717606, -0.42305794, -0.44947913, 0.26937106, -0.18228461, 0.28082374, -0.4193842, 0.5893818, 0.089217, -0.15144782], [0.40140358, -0.29771504, 0.07907705, -1.1206069, 0.20975862, 1.4471742, -0.73901993, -0.45195842, -0.033358432, -0.029069714, -1.0157572, 0.23475863, -0.5547881, 0.83461887, 0.0054391865, 0.056818716], [0.1764163, 0.32934403, 0.5974858, -1.1362716, -0.28911883, 1.5354031, -0.037145037, -0.55447656, -0.4487661, 0.47094107, -0.65539265, 0.3195187, -0.56098956, 0.553403, 0.09205578, 0.2363696], [0.21331462, -0.52165955, 0.67752004, -1.4446636, -0.8316034, 1.0940833, 0.23319781, -0.67976123, -0.28350216, -0.05008572, -0.56850415, 0.3529137, -0.6122329, 0.10459953, -0.5421893, 0.1179268], [1.0750159, 0.30361286, 0.9448491, -1.5687652, -0.64939666, 0.9731846, 0.06300513, -0.26490158, 0.03055639, 0.23855306, -0.2240116, 0.3603227, -0.2550819, 0.2668923, -0.36189234, 0.3316801], [0.34953022, 0.047299583, 0.3749353, -1.6305261, -0.5873356, 1.2200507, 0.3122196, -0.62806183, 0.14287844, -0.08417381, -0.32370436, 0.3712104, -1.1663716, 0.05478358, -0.51849157, -0.0652813], [0.89829236, -0.29553434, 0.6335348, -1.1230035, -0.37019998, 0.91388303, 0.5129389, -0.4629968, -0.4926372, 0.22299367, -0.13758767, 0.39683315, -1.0893669, -0.67705524, -0.31255114, -0.0053744344], [0.6486887, 0.4474721, 0.67396164, -1.4341649, -0.64411414, 0.54652035, 0.37944278, -0.5519921, -0.40462792, 0.23443916, -0.5659092, -0.13115272, -1.2371366, -0.6492577, -0.036345173, 0.31242177], [0.7311442, 0.54052967, 0.3719928, -1.0743794, -0.28174433, 0.5961682, 0.5545784, -0.13350518, -0.45362487, 0.7754589, -0.82051504, -0.036294486, -0.98177284, -0.1785689, -0.94875926, 0.6519688], [0.07656711, -0.018300328, 0.05927582, 1.391805, -1.130725, -0.08094367, -0.49063388, 0.09472118, 0.34040716, 0.06325925, -0.90778774, -1.1535807, -0.47628507, -0.6331086, 0.3572034, 0.39037532], [0.7634407, 0.34150586, 0.67337835, -1.1845086, -0.4446284, 0.8808696, 0.027687283, -0.18063, -0.64665747, 0.640578, -0.6190112, 0.049664132, -0.28555298, -0.32762942, -0.54457355, 0.9341377], [0.9688919, 0.41045406, 0.30316913, -1.4076352, -0.4117249, 1.6173656, -0.07829367, 0.152767, -0.8423183, 0.5206275, -0.3600073, -0.22343089, -0.14344586, 0.64585215, 0.23281246, 0.36987817], [0.72211605, 0.369973, 0.5220854, -1.3076047, -0.19278856, 0.9929624, 0.6590669, -0.05035678, 0.254459, 0.80722845, -0.7237943, -0.30100924, 0.08839639, -0.028212659, 0.024846151, 0.32865533], [0.81616133, 0.008431056, 0.6346592, -1.0963392, 0.12299904, 1.1697543, 0.5048832, -0.024847763, 0.0812214, 0.86394465, -0.78308773, -0.32991785, -0.05323784, 0.2299497, -0.66198754, 0.2517425], [0.66257405, -0.39092883, 0.32437438, -1.2600161, 0.36706367, 1.0142244, 0.43312377, -0.13015075, -0.41402602, 1.14905, -1.083805, -0.6944146, -0.75909555, -0.17783582, -0.32098714, 0.18643288], [0.4267085, -0.108589426, 0.27300665, -1.4310321, 0.26365605, 0.96642494, 0.59089524, 0.29502782, -0.6094732, 1.0677577, -0.7056294, -0.7570281, -0.52382374, -0.43625703, -0.49041417, -0.18126076], [0.18730016, -0.1695143, 0.23520027, -1.4184734, 0.0806216, 0.48499107, 0.5399576, 0.2020652, -0.31587416, 0.69937325, -0.9253871, -0.5693788, -0.59662217, 0.04598144, -0.895684, 0.2252051], [0.49410117, -0.14754646, 0.66966474, -1.3619039, -0.31798702, 0.39110258, 0.6672342, 0.08910632, -0.4992008, 0.46815068, -1.1481168, -0.39414772, -0.212634, 0.19526543, -0.62960935, 0.5248307], [0.933773, -0.197894, 0.6965335, -1.4373657, -0.38408604, -0.36106595, 0.60696167, 0.04210823, -0.33758765, 0.7497932, -0.76121056, -0.06145796, -0.22417249, -0.10781624, -0.5328102, 0.67324215], [0.9023392, -0.42843068, 0.8769664, -1.0638211, -0.5229098, 0.92518276, 0.16434781, -0.35234988, -0.2620664, 0.5225623, -1.0108238, -0.055603173, -0.9616681, 0.038106345, -0.6730535, 0.007728675], [-0.87435114, 0.082081206, -0.13584174, 1.5824326, -0.5279562, -0.2503671, -0.4013723, 0.11800199, 0.16422476, -0.10824734, -0.76440805, -0.60309106, -0.68853825, 0.14786856, -0.13999154, 0.46562606], [0.835368, -0.5532112, 0.30476418, -1.2388762, -0.22930901, 0.47499016, 0.50431174, -0.7286108, -0.4729129, 0.64807516, -0.7534643, 0.45189485, -0.94202477, 0.12069501, -0.7395226, 0.03754605], [0.6511429, -0.8029036, 0.4882614, -0.84609616, -0.09398675, -0.16280481, 0.83287615, -0.21514873, -0.49416173, 0.36458254, -0.92257476, 0.17705078, -0.40593424, -0.6017173, -1.0469259, -0.5018505], [1.1627752, -0.922702, 0.102868855, -1.0814421, -0.13407275, -0.6338005, 0.46322194, 0.35386682, -0.31025547, 0.15926903, -1.1121808, 0.014242746, -0.382176, -0.4456286, -0.23241529, -0.5214521], [1.112812, -0.99210316, 0.22679098, -0.9568678, 0.49981704, 0.16471104, 0.2415108, 0.18375948, -0.45209023, -0.029946115, -1.0963067, -0.13433835, -0.59691733, -0.68103874, -0.40635502, -0.48212144], [1.4177644, -1.2451015, 0.16466942, -0.8431396, 0.10509266, 0.8093672, 0.085129246, -0.09050625, -0.101924926, 0.40130565, -0.86352575, -0.00862298, -0.81765234, -0.5626915, -0.15802212, -0.042726554], [1.1958718, -0.7863916, 0.20006461, -1.1242954, 0.1719661, 0.24165747, 0.75613797, -0.1676112, 0.007073583, 0.22115444, -1.0339192, 0.14546455, -0.64752764, -0.73723704, -0.7180067, -0.24733193], [0.9319563, -1.0668951, 0.6132659, -1.226937, 0.096208304, 0.40933284, 0.50742716, -0.19838068, -0.2772551, 0.5372026, -0.74021894, 0.165501, 0.10375392, -0.56805867, -0.115429, -0.7815453], [1.1765368, -0.86771864, 0.21012238, -0.99345434, -0.0677981, 0.241285, 0.52741426, 0.09861028, 0.5767703, 0.6313385, -1.3887173, -0.20523176, -0.27531612, 0.10937986, -0.7123028, 0.077793635], [0.5006668, -0.7265849, 0.07780634, -1.5057819, 0.5421932, 0.06886455, 0.06349619, 0.037943132, 0.72312105, -0.12571882, -1.5503726, -0.44971234, -0.7008668, -0.14081152, -0.043078724, 0.26948616], [1.4553639, -0.8735471, -0.38157856, -1.0679046, 0.03032983, 0.6222145, 0.5857317, -0.21093284, 0.49576765, 0.4244386, -1.244913, -0.03718349, -0.029835377, -0.2170497, 0.40884802, 0.10014415], [0.2609772, 0.09598735, -0.23881736, 1.814941, -0.60396206, -0.06332018, -0.04542234, 0.1859589, 0.12930721, 0.16668071, -1.1465672, -0.7056495, -1.0567373, -0.13630196, -0.29730827, 0.635501], [0.7576866, -1.1029615, 0.5387666, -0.93581265, -0.17477374, -0.2100492, 0.16143925, -0.076078944, -0.36948103, 0.55783314, -1.6835288, 0.033325985, -0.23346263, -0.62608737, -0.43154818, -0.103231266], [0.5452259, -1.0994011, 0.47569, -0.8799976, -0.36160198, -0.088524185, 0.086331874, -0.36281028, 0.014370859, 0.7813129, -1.3883466, -0.2605209, -0.2066764, -0.59786916, -0.37254083, 0.06307217], [0.7776316, -0.8470703, -0.18891504, -1.1358043, -0.1519669, 0.14106202, -0.43265557, 0.21620956, 0.53200877, 0.66457236, -1.3551708, -0.07231974, -0.007391821, -0.31259933, 0.63305205, -0.26432776], [0.3545805, -1.077391, 0.44911054, -1.3391794, 0.5955572, 0.19135399, -0.32814124, -0.35891786, -0.8088808, -0.15672117, -1.304869, -0.24204603, -0.03999029, -0.5399701, 0.29065198, 0.1764505], [0.47754043, -0.69849, 0.121292904, -1.3402848, 0.054445967, 0.66968644, -1.3776615, 0.26769277, 0.0047819, 0.16798863, -1.4135212, 0.04545622, -0.37244228, -0.31896135, 0.3866655, -0.20834677], [0.5297208, -0.6386681, -0.11603751, -1.3912892, 0.085994236, 0.24352458, -1.1391245, -0.25765398, -0.2582122, 0.38242477, -1.2322116, -0.39361948, -0.2259173, -0.27830163, -0.49512184, -0.43222526], [0.79602545, -0.3793735, -0.5225065, -1.6266857, 0.25779286, 0.3640671, -0.6882817, -0.119273104, 0.048000623, 0.65295786, -1.0202726, -0.33049753, 1.0213419, -0.44575423, 0.17663963, -0.5803735], [1.0411375, -0.77056456, -0.20631619, -0.8243409, 0.21418627, -0.38485265, -1.2772256, 0.10353871, 0.08068018, 0.6238088, -0.58455086, -0.4025776, 0.6170294, -0.39345458, 0.41576326, -0.6660833], [0.61891747, -0.9259075, 0.0589332, -0.9490724, 0.23727389, 0.27111828, -1.459406, 0.32209948, 0.4000938, 0.44486627, -1.5571531, -0.21039504, -0.4290073, -0.26995417, 0.065581165, -0.36175692], [0.70355994, -0.8793109, -0.09946034, -0.40051922, 0.41195393, 0.35698912, -0.8810917, 0.28077173, 0.70496845, 0.6369991, -1.1947291, 0.2436167, 0.046044897, -0.013449856, 0.200296, -0.18865256], [-0.45079347, -0.5005659, -0.4016179, 1.5420848, -0.79831725, 0.15907641, 0.19414282, -0.13853657, -0.19683453, 0.59717077, -1.1441151, -0.31152192, -0.33578673, -0.45921203, 0.37041855, 0.40875256], [0.83299404, -0.8778291, 0.44063523, -0.4492843, -0.25021335, 0.32730696, -0.42469817, 0.3123518, 0.61401606, 0.65197873, -1.2840955, 0.1288446, -0.7555771, -0.3932174, -0.40260196, -0.3347311], [0.74011916, -1.156993, 0.02984019, -0.58761096, -0.57835424, -0.23472518, -0.4458951, -0.33740637, 0.48758954, 0.5818269, -1.3024998, -0.25848603, -0.49292728, 0.18927494, 0.08566445, -0.13936985], [0.5809656, -1.0292317, 0.18084465, -0.91612315, -0.6005717, -0.780595, -0.60668, 0.18433067, 0.49800307, 0.65504116, -1.1475104, 0.11251411, -0.38620946, -0.14259037, -0.069434166, -0.63703746], [0.043694355, -0.5221339, 0.039433163, -1.0946429, -0.28876224, -1.0174625, -0.8705785, 0.03359944, 0.7693819, 0.39823577, -1.4450257, -0.23188719, -0.39950898, 0.42241856, -0.26260766, -0.2508585], [0.35989326, -0.9017702, 0.3512761, -0.63434476, -0.34405345, -0.621637, -0.61966413, 0.25180763, 0.3962143, 0.6690651, -1.5881541, -0.12258728, -0.0013949283, -0.0025272965, -0.4878457, -0.5616288], [0.10399781, -0.8406291, -0.081881575, -1.007991, -0.56333894, -1.2366664, -0.51892877, 0.31065267, 0.82135767, 0.45119882, -1.0048842, -0.32290295, 0.06659164, 0.46540454, -0.43941215, -0.5531814], [-0.20348483, -0.73875415, -0.5294156, -0.7047395, -0.35834894, -1.5185139, -0.9584217, -0.18105005, 0.5099002, 0.44802022, -1.4419582, -0.11782798, 0.05769911, 0.2154611, -0.30185884, -0.18873763], [-0.23560676, -0.91239244, -0.21211669, -1.0176896, -0.60326123, -0.91903996, -0.83478355, 0.6558108, 0.19902423, 0.29359612, -0.775161, -0.18571629, -0.10684781, 0.3622765, -0.12785523, -0.72609645], [-0.1039303, -0.36435756, -0.6291328, -1.0156509, -0.6192446, -1.3351532, -0.6729753, 0.5176227, 0.0023890322, 0.22868001, -0.9438744, 0.036652412, 0.107576594, 0.022460906, 0.05623208, -0.8736137], [-0.07752027, 0.045435697, -0.5060471, -0.86899716, -0.5868696, -1.1755571, -1.3327122, 0.22228812, 0.59680575, 0.26477647, -1.0574905, -0.2645216, -0.1370349, 0.10528879, 0.23734048, -0.7578139], [-0.44292733, -0.20896824, -0.17338906, 1.4449964, -0.6818537, -0.020802964, 0.9525986, -0.18057606, 0.14227252, 0.23145415, -1.208979, -0.68816936, -0.55243343, -0.009936422, 0.009191392, 0.5620031], [-0.1715432, -0.036320057, -0.028393747, -1.0818361, 0.24428627, -1.0209887, -1.0142412, 0.08237895, 0.33589318, 0.79751885, -0.8732699, -0.31882188, -0.5565955, -0.01199137, 0.20932434, -1.0877197], [-0.6759807, -0.11471666, -0.1418019, -0.6895421, -0.28443056, -1.2740165, -0.6904111, 0.31346172, 0.68276846, 0.7301361, -0.2431601, -0.314473, -0.43265384, 0.51437414, 0.44151622, -0.54738706], [-0.7241917, -0.15707174, -0.056894634, -0.71726614, -0.34941915, -1.2342143, -0.88662153, 0.6951431, 1.1024609, 0.5457817, 0.11942814, -0.23115796, 0.22611241, 0.45000997, 0.9388967, -0.35611334], [-0.79780895, -0.3380389, -0.7801211, -0.8575056, -0.3616058, -1.0966847, -0.9357914, 0.57022387, 0.8485244, 0.54606366, 0.29072592, -0.08545459, 0.006941473, 0.4101339, 0.57526267, -0.8268866], [-0.63501924, -0.32488587, -0.02215274, -0.8977193, -0.060683724, -1.4281222, -0.8125175, 0.33300877, 0.956834, 0.6882466, -0.16799912, -0.18201755, -0.61191976, 0.76907486, 0.4354506, -0.3950595], [-0.5374785, -0.111265495, -0.048677195, -0.8645826, -0.21115533, -1.2680548, -0.9759935, 0.26424506, 1.1653976, 0.49546647, -0.15500149, -0.1696484, -0.4461499, 0.46883774, 0.4504422, -0.28228053], [-0.5687964, -0.28759822, -0.035884485, -0.5491499, -0.02952058, -1.0322217, -0.9987705, -0.107076526, 0.9660547, 0.3247284, 1.2007208, -0.38876092, -0.4508614, 0.1390525, 0.6605203, -0.2594044], [-0.7680893, -0.13961682, -0.31268564, -0.6894611, -0.36910084, -0.45362136, 